svm_type c_svc
kernel_type rbf
gamma 0.002808988792821765
nr_class 3
total_sv 165
rho -1.3561268355857674 -0.8765056701154956 -0.2946308514142525
label 1 2 3
probA -1.3235200408694576 -3.4360395575597247 -3.7340811237132363
probB -0.4711199480331118 -0.3605748319774108 -0.5443476949628246
nr_sv 78 75 12
SV
0.0 12.0 1:1.2545703649520874 2:-0.3369594216346741 3:-1.42803156375885 4:-0.7022900581359863 5:-1.3050503730773926 6:-0.5707631707191467 7:-0.2785886526107788 8:-1.242114543914795 
0.0 7.403337487324527 1:1.4124574661254883 2:-0.5109066367149353 3:-1.1585071086883545 4:-0.6095658540725708 5:-1.0943704843521118 6:-1.6754090785980225 7:-2.6929056644439697 8:-1.242114543914795 
0.0 12.0 1:1.2305054664611816 2:-0.43897807598114014 3:-1.1495298147201538 4:-0.6574776768684387 5:-1.1163491010665894 6:-1.4914753437042236 7:-2.654606342315674 8:-1.242114543914795 
12.0 0.0 1:1.055982232093811 2:-0.5226576924324036 3:-1.0720170736312866 4:-0.7522525787353516 5:-1.0378857851028442 6:-0.8971760272979736 7:-0.03493250161409378 8:-1.242114543914795 
12.0 7.133801424147344 1:1.1490163803100586 2:-0.48850053548812866 3:-1.0607386827468872 4:-0.7063736319541931 5:-1.0180325508117676 6:-0.7631940245628357 7:0.5603182315826416 8:-1.242114543914795 
12.0 12.0 1:0.7210628986358643 2:-0.5247876644134521 3:-0.9856496453285217 4:-0.6150051951408386 5:-0.9991785287857056 6:-0.3256121277809143 7:-1.2452889680862427 8:-1.242114543914795 
12.0 12.0 1:0.5931838154792786 2:-0.3981141149997711 3:-1.073135256767273 4:-0.6202393174171448 5:-1.0378435850143433 6:-0.6234697103500366 7:-1.143721342086792 8:-1.242114543914795 
12.0 0.0 1:0.18862299621105194 2:-0.47922009229660034 3:-1.284435749053955 4:-0.7393975853919983 5:-1.1887658834457397 6:-1.0149173736572266 7:-1.2307578325271606 8:-1.242114543914795 
12.0 0.0 1:0.30984750390052795 2:-0.6495518088340759 3:-1.2451913356781006 4:-0.9857648611068726 5:-1.1359786987304688 6:-1.4091161489486694 7:0.09581505507230759 8:-1.242114543914795 
12.0 0.0 1:1.0121997594833374 2:-0.9129161834716797 3:-1.0867440700531006 4:-0.8827371597290039 5:-0.9798409342765808 6:-1.220597743988037 7:0.336914986371994 8:-1.242114543914795 
8.022241900774171 0.0 1:0.6998981237411499 2:-1.1571056842803955 3:-1.6218938827514648 4:-1.118991732597351 5:-1.6437047719955444 6:0.0578378327190876 7:0.49714362621307373 8:-1.242114543914795 
12.0 0.0 1:0.9477121829986572 2:-0.9856661558151245 3:-1.224800705909729 4:-0.7517467737197876 5:-1.227130651473999 6:-0.058248668909072876 7:-0.9093484878540039 8:-1.242114543914795 
12.0 12.0 1:0.9570350050926208 2:-0.36175698041915894 3:-1.240454912185669 4:-0.7592045068740845 5:-1.1690162420272827 6:-0.1766335517168045 7:-1.8861629962921143 8:-1.242114543914795 
12.0 0.0 1:0.7660941481590271 2:-1.0672264099121094 3:-1.2691134214401245 4:-0.8380604982376099 5:-1.3504359722137451 6:-2.126333236694336 7:0.45143288373947144 8:-1.242114543914795 
12.0 0.0 1:0.5775196552276611 2:-1.0803613662719727 3:-1.229995608329773 4:-0.8917558789253235 5:-1.2708699703216553 6:-1.6342017650604248 7:-0.5281611680984497 8:-1.242114543914795 
12.0 0.0 1:0.5390523672103882 2:-0.9319881200790405 3:-1.2801649570465088 4:-0.925930380821228 5:-1.301348328590393 6:-1.5126785039901733 7:0.8656391501426697 8:-1.242114543914795 
12.0 0.0 1:0.5549904704093933 2:-0.8564532399177551 3:-1.337959885597229 4:-0.9081175923347473 5:-1.3201416730880737 6:-1.4554946422576904 7:-0.1488097906112671 8:-1.242114543914795 
12.0 0.0 1:0.28089138865470886 2:-0.8333221673965454 3:-1.2467830181121826 4:-0.7159854173660278 5:-1.285982370376587 6:-1.2976274490356445 7:-1.2395145893096924 8:-1.242114543914795 
12.0 0.0 1:0.26475486159324646 2:-1.2489486932754517 3:-1.1502052545547485 4:-0.8121387362480164 5:-1.2762068510055542 6:-1.108957052230835 7:-0.5084419846534729 8:-1.242114543914795 
12.0 0.0 1:0.591451108455658 2:-0.873366117477417 3:-1.1608420610427856 4:-0.9198300838470459 5:-1.2644790410995483 6:-0.5781121253967285 7:-0.4106098711490631 8:-1.242114543914795 
6.9644947132472925 0.0 1:0.9819862842559814 2:-0.36793819069862366 3:-1.409075379371643 4:-0.9143697619438171 5:-1.3920307159423828 6:-0.4528656303882599 7:-1.0142685174942017 8:-1.242114543914795 
4.321940599972243 0.0 1:0.8438709378242493 2:-1.1052817106246948 3:-1.1757131814956665 4:-0.906753659248352 5:-1.3181477785110474 6:-0.267261803150177 7:-1.0218925476074219 8:-1.242114543914795 
12.0 0.0 1:1.213151454925537 2:-1.244835376739502 3:-1.1572322845458984 4:-0.9681233167648315 5:-1.0562478303909302 6:-1.6922643184661865 7:0.6720579862594604 8:-1.242114543914795 
12.0 0.0 1:-0.3350692391395569 2:-0.7008807063102722 3:-0.402077317237854 4:-0.5367163419723511 5:-0.4761643409729004 6:-0.9725571870803833 7:-0.15751518309116364 8:0.8050779104232788 
12.0 0.0 1:-0.9778115749359131 2:-0.5499100685119629 3:0.09404651075601578 4:-0.3814622163772583 5:-0.042075153440237045 6:0.7516329288482666 7:0.16336823999881744 8:0.8050779104232788 
12.0 0.0 1:-1.0739442110061646 2:-0.5282064080238342 3:0.15870748460292816 4:-0.3637867569923401 5:0.01535511203110218 6:0.364223450422287 7:0.3725663721561432 8:0.8050779104232788 
12.0 0.0 1:-1.0725290775299072 2:-0.5236401557922363 3:0.16652610898017883 4:-0.3576638698577881 5:0.02243088185787201 6:0.3023935854434967 7:0.29900628328323364 8:0.8050779104232788 
12.0 0.0 1:-1.1326743364334106 2:-0.5183383822441101 3:0.1677265167236328 4:-0.37411603331565857 5:0.02459271065890789 6:0.4673004746437073 7:0.08530773222446442 8:0.8050779104232788 
12.0 0.0 1:-1.0621836185455322 2:-0.5216277241706848 3:0.16612836718559265 4:-0.3554774522781372 5:0.022738803178071976 6:1.0457804203033447 7:0.06641225516796112 8:0.8050779104232788 
12.0 0.0 1:-1.0216196775436401 2:-0.5339228510856628 3:0.16456738114356995 4:-0.35153934359550476 5:0.019482005387544632 6:0.7808631062507629 7:0.11291131377220154 8:0.8050779104232788 
12.0 0.0 1:-1.1549522876739502 2:-0.522517740726471 3:0.16784128546714783 4:-0.3842061460018158 5:0.023764776065945625 6:-2.2163608074188232 7:-0.23666691780090332 8:0.8050779104232788 
12.0 0.0 1:-1.0888718366622925 2:-0.5367671847343445 3:0.16847766935825348 4:-0.36161166429519653 5:0.02190064638853073 6:-1.8335801362991333 7:-0.18874169886112213 8:0.8050779104232788 
12.0 0.0 1:-0.9418433308601379 2:-0.5551193952560425 3:0.1640600860118866 4:-0.32534125447273254 5:0.01458850596100092 6:0.9165933132171631 7:0.14102545380592346 8:0.8050779104232788 
12.0 0.0 1:-1.0693477392196655 2:-0.5295401215553284 3:0.16719835996627808 4:-0.3585203289985657 5:0.021135319024324417 6:-1.0668672323226929 7:0.09992744028568268 8:0.8050779104232788 
12.0 0.0 1:-1.043203353881836 2:-0.5188916921615601 3:0.16804537177085876 4:-0.34928181767463684 5:0.024869967252016068 6:-2.1987311840057373 7:-0.23847635090351105 8:0.8050779104232788 
12.0 0.0 1:-1.0174320936203003 2:-0.5788235664367676 3:0.16677258908748627 4:-0.34330111742019653 5:0.014073602855205536 6:1.0577481985092163 7:0.35605689883232117 8:0.8050779104232788 
12.0 0.0 1:-1.0627902746200562 2:-0.5243756771087646 3:0.16628941893577576 4:-0.3566635847091675 5:0.021973473951220512 6:1.2335935831069946 7:0.7999798059463501 8:0.8050779104232788 
12.0 0.0 1:-1.0713545083999634 2:-0.5178180932998657 3:0.16794103384017944 4:-0.3570982813835144 5:0.024930017068982124 6:0.7398130297660828 7:0.7951546311378479 8:0.8050779104232788 
12.0 0.0 1:-1.0632740259170532 2:-0.5192891359329224 3:0.16792212426662445 4:-0.35478097200393677 5:0.024554381147027016 6:0.23161019384860992 7:0.6675330996513367 8:0.8050779104232788 
12.0 0.0 1:-1.0971649885177612 2:-0.5199705362319946 3:0.16767174005508423 4:-0.3652071952819824 5:0.02427329123020172 6:-0.18038348853588104 7:0.5847175717353821 8:0.8050779104232788 
12.0 0.0 1:-1.0935297012329102 2:-0.5301700234413147 3:0.1631661355495453 4:-0.36803027987480164 5:0.01902715303003788 6:-0.5378700494766235 7:0.5502105355262756 8:0.8050779104232788 
12.0 0.0 1:-1.0861808061599731 2:-0.5573682188987732 3:0.16557739675045013 4:-0.3660571873188019 5:0.015015250071883202 6:0.8483409285545349 7:0.8411247730255127 8:0.8050779104232788 
12.0 0.0 1:-0.8604663014411926 2:-0.5661930441856384 3:0.16641265153884888 4:-0.29901713132858276 5:0.013597029261291027 6:-2.2932560443878174 7:-0.24747104942798615 8:0.8050779104232788 
12.0 0.0 1:-0.9600208401679993 2:-0.5362046360969543 3:0.1677180379629135 4:-0.32803669571876526 5:0.020773736760020256 6:1.2781012058258057 7:0.5460777282714844 8:0.8050779104232788 
12.0 0.0 1:-0.9829989075660706 2:-0.5241432785987854 3:0.16775912046432495 4:-0.3376161456108093 5:0.023217931389808655 6:0.4043460488319397 7:0.6063768863677979 8:0.8050779104232788 
12.0 0.0 1:-0.9308199286460876 2:-0.5216224789619446 3:0.16665586829185486 4:-0.31825199723243713 5:0.022887013852596283 6:0.2559638023376465 7:0.6137663722038269 8:0.8050779104232788 
12.0 0.0 1:-1.1168867349624634 2:-0.5199097990989685 3:0.1669043004512787 4:-0.37056899070739746 5:0.02369961515069008 6:0.03914162144064903 7:0.5565775632858276 8:0.8050779104232788 
12.0 0.0 1:-1.080008625984192 2:-0.5211867094039917 3:0.16792277991771698 4:-0.36354273557662964 5:0.024415113031864166 6:1.3355648517608643 7:0.6919330954551697 8:0.8050779104232788 
12.0 0.0 1:-1.1303564310073853 2:-0.5441632866859436 3:0.16768543422222137 4:-0.3748109042644501 5:0.018623407930135727 6:-1.6924587488174438 7:-0.13904380798339844 8:0.8050779104232788 
12.0 0.0 1:-1.1327763795852661 2:-0.5884658098220825 3:0.16501402854919434 4:-0.3791998624801636 5:0.005172033328562975 6:1.3068126440048218 7:-1.5372600555419922 8:0.8050779104232788 
12.0 0.0 1:-1.1041663885116577 2:-0.5401925444602966 3:0.1666630357503891 4:-0.36714473366737366 5:0.018266936764121056 6:0.5950056910514832 7:-0.1705562323331833 8:0.8050779104232788 
12.0 0.0 1:-1.0543345212936401 2:-0.5772336721420288 3:0.15212447941303253 4:-0.3733936846256256 5:0.0021413853392004967 6:0.9242388010025024 7:0.12984420359134674 8:0.8050779104232788 
12.0 0.0 1:-0.8983035087585449 2:-0.5344193577766418 3:0.16226698458194733 4:-0.3156680762767792 5:0.016865326091647148 6:0.6104592084884644 7:0.16875839233398438 8:0.8050779104232788 
12.0 7.167132640258355 1:-1.0260412693023682 2:-0.5202187895774841 3:0.16765674948692322 4:-0.3443676829338074 5:0.024186410009860992 6:1.2105730772018433 7:0.10948171466588974 8:0.8050779104232788 
12.0 0.0 1:-0.9765948057174683 2:-0.5301132202148438 3:0.16764239966869354 4:-0.3396037817001343 5:0.02265319786965847 6:-0.37554869055747986 7:-0.05152977630496025 8:0.8050779104232788 
12.0 0.0 1:-0.986143171787262 2:-0.6051951050758362 3:0.16546720266342163 4:-0.3373107314109802 5:0.007025941275060177 6:-0.06497402489185333 7:-0.04362563043832779 8:0.8050779104232788 
12.0 0.0 1:-0.8984048366546631 2:-0.5539705753326416 3:0.16382209956645966 4:-0.3145174980163574 5:0.01256722304970026 6:0.3346107006072998 7:0.09583070874214172 8:0.8050779104232788 
12.0 0.0 1:-0.9260850548744202 2:-0.5494782328605652 3:0.16775651276111603 4:-0.31621912121772766 5:0.0194973386824131 6:1.1582815647125244 7:0.7947741150856018 8:0.8050779104232788 
12.0 0.0 1:-0.9253078699111938 2:-0.5572533011436462 3:0.1682833582162857 4:-0.3160672187805176 5:0.01770603656768799 6:1.0721620321273804 7:0.7395336031913757 8:0.8050779104232788 
12.0 0.0 1:-0.959726095199585 2:-0.5936632752418518 3:0.1663435399532318 4:-0.3268764317035675 5:0.009697562083601952 6:0.5022037625312805 7:0.5173420310020447 8:0.8050779104232788 
12.0 0.0 1:-1.0160812139511108 2:-0.549414873123169 3:0.16777868568897247 4:-0.34379884600639343 5:0.01625204086303711 6:-0.9507818222045898 7:-0.08701368421316147 8:0.8050779104232788 
12.0 0.0 1:-1.075295090675354 2:-0.5230063199996948 3:0.16652023792266846 4:-0.3609588146209717 5:0.022492211312055588 6:-0.29429423809051514 7:-2.2464630092144944E-5 8:0.8050779104232788 
12.0 0.0 1:-1.0505964756011963 2:-0.5399112701416016 3:0.1659770905971527 4:-0.35272544622421265 5:0.01933635026216507 6:0.22983898222446442 7:0.31650009751319885 8:0.8050779104232788 
12.0 0.0 1:-1.0955028533935547 2:-0.5203508138656616 3:0.16751787066459656 4:-0.36516842246055603 5:0.023877212777733803 6:-1.8285070657730103 7:-0.3869151473045349 8:0.8050779104232788 
12.0 0.0 1:-1.0025622844696045 2:-0.5363142490386963 3:0.1679169088602066 4:-0.34035035967826843 5:0.02226606197655201 6:0.5052651166915894 7:0.19802503287792206 8:0.8050779104232788 
12.0 0.0 1:-0.9685900807380676 2:-0.5544446110725403 3:0.1681816428899765 4:-0.33072566986083984 5:0.018669404089450836 6:1.2146929502487183 7:0.4710649251937866 8:0.8050779104232788 
12.0 0.0 1:-0.9848214983940125 2:-0.5465744733810425 3:0.15538793802261353 4:-0.3468465507030487 5:0.01617537997663021 6:0.5895159840583801 7:0.5880014896392822 8:0.8050779104232788 
12.0 0.0 1:-0.9603233933448792 2:-0.5223117470741272 3:0.16487514972686768 4:-0.328014075756073 5:0.022542040795087814 6:0.07903679460287094 7:0.6043952107429504 8:0.8050779104232788 
12.0 0.0 1:-0.9267886877059937 2:-0.5181640982627869 3:0.16742397844791412 4:-0.3158765435218811 5:0.0246131531894207 6:0.2671748101711273 7:0.6190149188041687 8:0.8050779104232788 
12.0 0.0 1:-0.9227338433265686 2:-0.5223909616470337 3:0.16714946925640106 4:-0.3180047571659088 5:0.0235501267015934 6:0.517601728439331 7:0.5178968906402588 8:0.8050779104232788 
12.0 0.0 1:-0.9538679718971252 2:-0.5304777026176453 3:0.15758401155471802 4:-0.3300889730453491 5:0.012834257446229458 6:0.17555300891399384 7:0.4927889108657837 8:0.8050779104232788 
12.0 0.0 1:-0.5932472944259644 2:-0.5462126731872559 3:0.1554257571697235 4:-0.23559200763702393 5:0.01047822181135416 6:-1.8913466930389404 7:-0.9106473326683044 8:0.8050779104232788 
12.0 0.0 1:-1.0417397022247314 2:-0.5221691131591797 3:0.16502316296100616 4:-0.353837251663208 5:0.02135380171239376 6:1.0924187898635864 7:0.8105326890945435 8:0.8050779104232788 
12.0 0.0 1:-1.020190954208374 2:-0.5252881646156311 3:0.16358083486557007 4:-0.3458866775035858 5:0.01982186734676361 6:0.7152885794639587 7:0.8154919743537903 8:0.8050779104232788 
12.0 0.0 1:-1.023345947265625 2:-0.5396894216537476 3:0.16785496473312378 4:-0.3433043658733368 5:0.019131923094391823 6:0.674370527267456 7:0.6752697825431824 8:0.8050779104232788 
12.0 12.0 1:-0.9539421796798706 2:-0.5199942588806152 3:0.1667328029870987 4:-0.32432642579078674 5:0.0233341995626688 6:1.4663094282150269 7:0.7224482297897339 8:0.8050779104232788 
12.0 0.0 1:-1.0332517623901367 2:-0.5177534222602844 3:0.16829054057598114 4:-0.34591737389564514 5:0.025220049545168877 6:1.2849513292312622 7:0.6029363870620728 8:0.8050779104232788 
12.0 0.0 1:-0.9333176612854004 2:-0.5169029831886292 3:0.16745983064174652 4:-0.3183990716934204 5:0.024761363863945007 6:-0.2799180746078491 7:0.07540150731801987 8:0.8050779104232788 
-12.0 3.1811802121115016 1:0.8654481768608093 2:-0.661292314529419 3:-1.014526605606079 4:-1.1889809370040894 5:-0.9752336144447327 6:-0.2413141131401062 7:-0.6081869602203369 8:-1.242114543914795 
-12.0 0.0 1:0.3288913667201996 2:-0.7717489004135132 3:-1.0486987829208374 4:-1.2844377756118774 5:-0.8751046657562256 6:-0.010411354713141918 7:-0.21406546235084534 8:-1.242114543914795 
-12.0 0.0 1:0.774529218673706 2:-0.8070021271705627 3:-1.297200083732605 4:-1.3738524913787842 5:-1.1235123872756958 6:-0.9901278018951416 7:-0.43834006786346436 8:-1.242114543914795 
-12.0 12.0 1:0.8095939755439758 2:-0.37034282088279724 3:-1.1831613779067993 4:-1.0405735969543457 5:-1.1960556507110596 6:-0.06766227632761002 7:-0.09454409778118134 8:-1.242114543914795 
-12.0 12.0 1:0.8265811800956726 2:-0.5164738297462463 3:-0.8936309814453125 4:-0.9088189005851746 5:-0.8327944278717041 6:-0.22778061032295227 7:-0.5211848616600037 8:-1.242114543914795 
-12.0 0.0 1:0.4934672713279724 2:-1.1119277477264404 3:-0.7988391518592834 4:-0.8542460203170776 5:-0.8599048256874084 6:-1.0929511785507202 7:0.579728364944458 8:-1.242114543914795 
-12.0 9.39270862705348 1:0.8480855822563171 2:-0.6591531038284302 3:-1.0363529920578003 4:-1.041935920715332 5:-0.9495165348052979 6:-0.9332489371299744 7:-0.2582581639289856 8:-1.242114543914795 
-12.0 0.0 1:0.4610457718372345 2:-0.7692875266075134 3:-1.0296200513839722 4:-1.0131118297576904 5:-0.9040248990058899 6:-1.3163384199142456 7:-0.044677384197711945 8:-1.242114543914795 
-12.0 0.0 1:0.47572794556617737 2:-0.5981040596961975 3:-1.1345269680023193 4:-1.0880459547042847 5:-0.9524558186531067 6:-1.0875957012176514 7:-0.1491304337978363 8:-1.242114543914795 
-12.0 0.0 1:0.5037577748298645 2:-0.6642634272575378 3:-0.8307950496673584 4:-1.0572293996810913 5:-0.7949228286743164 6:-0.5852315425872803 7:0.16791971027851105 8:-1.242114543914795 
-12.0 0.0 1:0.5202368497848511 2:-0.9323208332061768 3:-0.7667802572250366 4:-1.033902883529663 5:-0.7886098623275757 6:-0.01456583570688963 7:-0.1022651270031929 8:-1.242114543914795 
-12.0 0.0 1:0.6355418562889099 2:-0.9676598906517029 3:-0.8167807459831238 4:-0.9031969308853149 5:-0.8354788422584534 6:0.06738768517971039 7:-0.47820186614990234 8:-1.242114543914795 
-12.0 0.0 1:0.5539115071296692 2:-0.797866940498352 3:-0.9518139362335205 4:-1.0128031969070435 5:-0.9211041927337646 6:-0.2607146203517914 7:-0.4346783459186554 8:-1.242114543914795 
-12.0 12.0 1:0.927817702293396 2:-0.5828774571418762 3:-0.9696061611175537 4:-0.9022855162620544 5:-0.9288380146026611 6:0.051485586911439896 7:-0.7097836136817932 8:-1.242114543914795 
-12.0 12.0 1:0.9003302454948425 2:-0.6747283339500427 3:-0.7456586956977844 4:-0.8815332651138306 5:-0.7209556102752686 6:-0.1813623607158661 7:0.07992575317621231 8:-1.242114543914795 
-12.0 0.0 1:0.48563024401664734 2:-1.0126173496246338 3:-1.2298657894134521 4:-1.3848055601119995 5:-1.2159030437469482 6:-0.46483126282691956 7:0.3593408167362213 8:-1.242114543914795 
-12.0 0.0 1:0.3904010057449341 2:-1.0191129446029663 3:-0.870049238204956 4:-0.8627411723136902 5:-0.9952107071876526 6:-0.5487614274024963 7:-0.8294676542282104 8:-1.242114543914795 
-12.0 0.0 1:0.2845558524131775 2:-0.9606150388717651 3:-0.8902435898780823 4:-0.9692043662071228 5:-0.7682807445526123 6:-0.13534656167030334 7:-1.082823395729065 8:-1.242114543914795 
-12.0 0.0 1:-0.21657148003578186 2:-0.9894282221794128 3:-0.7922477126121521 4:-1.2632232904434204 5:-0.7855613231658936 6:0.08038563281297684 7:-0.8287338018417358 8:-1.242114543914795 
-12.0 0.0 1:0.5378006100654602 2:-1.1131478548049927 3:-1.1023845672607422 4:-1.117563247680664 5:-1.1402562856674194 6:0.4716981053352356 7:-0.9306864738464355 8:-1.242114543914795 
-12.0 0.0 1:-1.3068263530731201 2:-0.4473394453525543 3:0.2147732526063919 4:-0.3659214675426483 5:0.07934113591909409 6:-1.5288718938827515 7:-0.005090621300041676 8:0.8050779104232788 
-12.0 0.0 1:-1.3668574094772339 2:-0.45013228058815 3:0.21799303591251373 4:-0.39122912287712097 5:0.08146974444389343 6:-1.5201605558395386 7:-0.19822381436824799 8:0.8050779104232788 
-12.0 0.0 1:-1.049678087234497 2:-0.45188456773757935 3:0.20966385304927826 4:-0.3002000153064728 5:0.07399533689022064 6:-0.1554754674434662 7:-0.05174693465232849 8:0.8050779104232788 
-12.0 0.0 1:-1.2371071577072144 2:-0.4499962627887726 3:0.2145189493894577 4:-0.36293837428092957 5:0.07853875309228897 6:0.7115030288696289 7:-0.34921473264694214 8:0.8050779104232788 
-12.0 0.0 1:-1.1765966415405273 2:-0.4556374251842499 3:0.218111053109169 4:-0.3332885801792145 5:0.07943057268857956 6:-0.6000258326530457 7:0.015491064637899399 8:0.8050779104232788 
-12.0 0.0 1:-1.2396798133850098 2:-0.4518093168735504 3:0.21650637686252594 4:-0.34796804189682007 5:0.0792108103632927 6:0.6507568359375 7:0.11757374554872513 8:0.8050779104232788 
-12.0 0.0 1:-1.2278999090194702 2:-0.4528445899486542 3:0.21509861946105957 4:-0.3533379137516022 5:0.0785093680024147 6:-1.048484444618225 7:-0.1594008505344391 8:0.8050779104232788 
-12.0 0.0 1:-1.1619744300842285 2:-0.44998836517333984 3:0.21832230687141418 4:-0.33227214217185974 5:0.08079768717288971 6:-0.7984158992767334 7:-0.09817519783973694 8:0.8050779104232788 
-12.0 0.0 1:-1.2501729726791382 2:-0.4543301463127136 3:0.21403644979000092 4:-0.37564149498939514 5:0.07854130864143372 6:-0.5460710525512695 7:0.024464663118124008 8:0.8050779104232788 
-12.0 0.0 1:-1.2072197198867798 2:-0.45534294843673706 3:0.21550418436527252 4:-0.3693877160549164 5:0.06785482913255692 6:-0.165790393948555 7:-0.19228975474834442 8:0.8050779104232788 
-12.0 0.0 1:-1.0604159832000732 2:-0.44687727093696594 3:0.21818342804908752 4:-0.29359719157218933 5:0.0819680392742157 6:0.9922406673431396 7:0.30151140689849854 8:0.8050779104232788 
-12.0 0.0 1:-1.089367151260376 2:-0.448613703250885 3:0.21725556254386902 4:-0.2997815012931824 5:0.08066736161708832 6:0.6951712369918823 7:0.335735946893692 8:0.8050779104232788 
-12.0 0.0 1:-1.0526061058044434 2:-0.4460929036140442 3:0.2165181040763855 4:-0.293802410364151 5:0.08077213168144226 6:0.31345367431640625 7:0.3348006010055542 8:0.8050779104232788 
-12.0 0.0 1:-1.1659001111984253 2:-0.46475937962532043 3:0.21826884150505066 4:-0.3204270899295807 5:0.07917504012584686 6:0.7710103988647461 7:0.3007258474826813 8:0.8050779104232788 
-12.0 0.0 1:-1.2049932479858398 2:-0.44827699661254883 3:0.21874156594276428 4:-0.33111995458602905 5:0.08213285356760025 6:0.08172504603862762 7:0.31469202041625977 8:0.8050779104232788 
-12.0 0.0 1:-1.045937180519104 2:-0.44911155104637146 3:0.21897108852863312 4:-0.2879994809627533 5:0.08241522312164307 6:-0.18708787858486176 7:0.32382288575172424 8:0.8050779104232788 
-12.0 0.0 1:-1.1382769346237183 2:-0.4588449001312256 3:0.2192143052816391 4:-0.3145853877067566 5:0.08063286542892456 6:-0.22509026527404785 7:0.47481516003608704 8:0.8050779104232788 
-12.0 0.0 1:-1.1124286651611328 2:-0.4493994116783142 3:0.21860529482364655 4:-0.3137838542461395 5:0.08169972151517868 6:0.14141897857189178 7:0.6407430171966553 8:0.8050779104232788 
-12.0 0.0 1:-1.1190526485443115 2:-0.4444066286087036 3:0.2191256284713745 4:-0.3231225311756134 5:0.08331470936536789 6:0.038365013897418976 7:0.48852401971817017 8:0.8050779104232788 
-12.0 0.0 1:-1.0630065202713013 2:-0.47052332758903503 3:0.2192292958498001 4:-0.2983093559741974 5:0.07857708632946014 6:1.4070054292678833 7:0.5565469264984131 8:0.8050779104232788 
-12.0 0.0 1:-1.1044104099273682 2:-0.4541941285133362 3:0.21430116891860962 4:-0.3079744577407837 5:0.0776737704873085 6:1.159903883934021 7:0.6631810665130615 8:0.8050779104232788 
-12.0 0.0 1:-1.0958055257797241 2:-0.4517538547515869 3:0.2166413515806198 4:-0.3026805520057678 5:0.08482491970062256 6:0.07545874267816544 7:0.7260071635246277 8:0.8050779104232788 
-4.253890641180797 0.0 1:-1.1232537031173706 2:-0.4530162513256073 3:0.2155354917049408 4:-0.31294840574264526 5:0.09187258034944534 6:-0.2525806725025177 7:0.6307489275932312 8:0.8050779104232788 
-12.0 0.0 1:-1.0418567657470703 2:-0.45184364914894104 3:0.215230330824852 4:-0.2878411114215851 5:0.08030961453914642 6:-0.4124537706375122 7:0.6460330486297607 8:0.8050779104232788 
-12.0 0.0 1:-1.0423798561096191 2:-0.4455224573612213 3:0.2172849178314209 4:-0.29026827216148376 5:0.08174316585063934 6:-0.5806777477264404 7:0.5965816378593445 8:0.8050779104232788 
-12.0 0.0 1:-1.0874989032745361 2:-0.4482664167881012 3:0.21878135204315186 4:-0.301974356174469 5:0.08211752772331238 6:-0.19922536611557007 7:0.6386783123016357 8:0.8050779104232788 
-12.0 0.0 1:-1.1233015060424805 2:-0.45047032833099365 3:0.2169269472360611 4:-0.3140327036380768 5:0.08045271039009094 6:0.8188351392745972 7:0.4932892322540283 8:0.8050779104232788 
-12.0 0.0 1:-1.1180834770202637 2:-0.44838130474090576 3:0.2160864621400833 4:-0.3083881437778473 5:0.08011285215616226 6:-1.545810580253601 7:0.12705449759960175 8:0.8050779104232788 
-12.0 0.0 1:-1.1803117990493774 2:-0.4674426317214966 3:0.2144491821527481 4:-0.3299855589866638 5:0.07612650096416473 6:0.8805434107780457 7:0.3914366662502289 8:0.8050779104232788 
-12.0 0.0 1:-1.1296756267547607 2:-0.4479706287384033 3:0.21638639271259308 4:-0.32626235485076904 5:0.08020100742578506 6:0.7702956199645996 7:0.49797073006629944 8:0.8050779104232788 
-12.0 0.0 1:-1.0825191736221313 2:-0.446271151304245 3:0.2154826670885086 4:-0.30047959089279175 5:0.07993780821561813 6:-0.1183377206325531 7:0.7428324818611145 8:0.8050779104232788 
-12.0 0.0 1:-1.1189112663269043 2:-0.45234939455986023 3:0.21734033524990082 4:-0.3090232014656067 5:0.08017290383577347 6:-0.7626091837882996 7:0.6287094354629517 8:0.8050779104232788 
-12.0 0.0 1:-1.22548508644104 2:-0.4502352774143219 3:0.21926385164260864 4:-0.33707642555236816 5:0.08230278640985489 6:-1.1073734760284424 7:0.42596888542175293 8:0.8050779104232788 
-12.0 0.0 1:-1.256929636001587 2:-0.45094043016433716 3:0.21450135111808777 4:-0.3614630103111267 5:0.07816439121961594 6:-1.277489185333252 7:0.20602720975875854 8:0.8050779104232788 
-12.0 12.0 1:-0.9253920912742615 2:-0.45249465107917786 3:0.21134546399116516 4:-0.2776411175727844 5:0.07502003014087677 6:0.7074690461158752 7:-1.3241891860961914 8:0.8050779104232788 
-12.0 0.0 1:-1.0104835033416748 2:-0.4703899621963501 3:0.21821406483650208 4:-0.3089601993560791 5:0.037510015070438385 6:1.2156027555465698 7:0.4991130232810974 8:0.8050779104232788 
-12.0 0.0 1:-1.0355618000030518 2:-0.44958558678627014 3:0.2157682627439499 4:-0.29764196276664734 5:0.07420743256807327 6:1.015799880027771 7:0.6726502776145935 8:0.8050779104232788 
-12.0 0.0 1:-1.0085495710372925 2:-0.4458446502685547 3:0.21854466199874878 4:-0.2811122238636017 5:0.08188371360301971 6:-0.021111972630023956 7:0.6153600215911865 8:0.8050779104232788 
-12.0 0.0 1:-1.0608876943588257 2:-0.44718098640441895 3:0.21927428245544434 4:-0.2928182780742645 5:0.08260687440633774 6:-0.1926477998495102 7:0.7905426025390625 8:0.8050779104232788 
-12.0 0.0 1:-1.0790367126464844 2:-0.4505125880241394 3:0.21768395602703094 4:-0.31913918256759644 5:0.08065969496965408 6:-0.26487958431243896 7:0.7901157736778259 8:0.8050779104232788 
-12.0 0.0 1:-1.0422991514205933 2:-0.44827038049697876 3:0.21805432438850403 4:-0.29348406195640564 5:0.08149784803390503 6:-0.5037831664085388 7:0.7945126891136169 8:0.8050779104232788 
-12.0 0.0 1:-1.0407155752182007 2:-0.4491603970527649 3:0.2166302651166916 4:-0.28659680485725403 5:0.08049359917640686 6:-0.3412197232246399 7:0.6486172080039978 8:0.8050779104232788 
-12.0 0.0 1:-0.9565939903259277 2:-0.4735683798789978 3:0.21789652109146118 4:-0.26184341311454773 5:0.0793871283531189 6:0.167116180062294 7:0.6904265880584717 8:0.8050779104232788 
-12.0 0.0 1:-1.0077039003372192 2:-0.4546404480934143 3:0.21705083549022675 4:-0.2785363495349884 5:0.08419375121593475 6:-0.42819762229919434 7:0.5641331672668457 8:0.8050779104232788 
-12.0 0.0 1:-1.1456801891326904 2:-0.45294758677482605 3:0.2181253880262375 4:-0.31924745440483093 5:0.08107877522706985 6:-1.194742202758789 7:0.2985917031764984 8:0.8050779104232788 
-12.0 0.0 1:-1.0697859525680542 2:-0.45493096113204956 3:0.2164040058851242 4:-0.30477645993232727 5:0.07498681545257568 6:-0.037894438952207565 7:0.09566324204206467 8:0.8050779104232788 
-12.0 0.0 1:-1.163403034210205 2:-0.4512454569339752 3:0.215397909283638 4:-0.32303041219711304 5:0.0781477838754654 6:0.7535603046417236 7:0.0013635349459946156 8:0.8050779104232788 
-12.0 0.0 1:-1.1886318922042847 2:-0.4475414752960205 3:0.21814168989658356 4:-0.33198127150535583 5:0.08153362572193146 6:0.3976196348667145 7:0.11474456638097763 8:0.8050779104232788 
-3.054786572812907 0.0 1:-1.116600513458252 2:-0.4578399956226349 3:0.21749812364578247 4:-0.3372541666030884 5:0.07984709739685059 6:0.5560055375099182 7:0.6215241551399231 8:0.8050779104232788 
-12.0 0.0 1:-1.1777362823486328 2:-0.453688383102417 3:0.21381931006908417 4:-0.5825872421264648 5:0.08473165333271027 6:-1.554632544517517 7:-0.025011982768774033 8:0.8050779104232788 
-12.0 0.0 1:-1.147687554359436 2:-0.46954089403152466 3:0.2144426703453064 4:-0.36332622170448303 5:0.07626960426568985 6:1.0006638765335083 7:-0.02547352947294712 8:0.8050779104232788 
-12.0 0.0 1:-1.0987763404846191 2:-0.4578426480293274 3:0.21737033128738403 4:-0.3086838722229004 5:0.07920825481414795 6:0.2094271183013916 7:0.10424745827913284 8:0.8050779104232788 
-12.0 0.0 1:-1.1744964122772217 2:-0.4714912474155426 3:0.21451829373836517 4:-0.3423396348953247 5:0.07467250525951385 6:0.5414051413536072 7:0.20723144710063934 8:0.8050779104232788 
-12.0 0.0 1:-1.1616004705429077 2:-0.4560494124889374 3:0.21378540992736816 4:-0.3269313871860504 5:0.07616610825061798 6:0.6045146584510803 7:0.2890973389148712 8:0.8050779104232788 
-12.0 7.355233522619284 1:-1.0226837396621704 2:-0.45811861753463745 3:0.2174394428730011 4:-0.3014879524707794 5:0.07964266836643219 6:1.0475956201553345 7:0.2756879925727844 8:0.8050779104232788 
-12.0 -12.0 1:0.7514005899429321 2:1.2000151872634888 3:-0.2472807615995407 4:-0.16693758964538574 5:0.06616062670946121 6:-0.11282076686620712 7:0.8930622935295105 8:-1.242114543914795 
-0.0 -12.0 1:0.6859567165374756 2:1.0976386070251465 3:-0.10878916829824448 4:0.02131623588502407 5:0.14333227276802063 6:0.46303698420524597 7:0.2302665412425995 8:-1.242114543914795 
-0.0 -12.0 1:1.0958483219146729 2:0.9946454763412476 3:-0.3370785713195801 4:0.03395795449614525 5:0.01640791818499565 6:0.00979509949684143 7:-0.368234783411026 8:-1.242114543914795 
-0.0 -0.8686845022299947 1:0.7440916299819946 2:1.4684990644454956 3:-0.6236976385116577 4:-2.1492376981768757E-4 5:-0.264585018157959 6:0.28749656677246094 7:1.2316370010375977 8:-1.242114543914795 
-2.535241685870118 -0.0 1:0.6726332902908325 2:1.1182700395584106 3:-0.5502999424934387 4:0.03164873644709587 5:-0.20070375502109528 6:0.4536495804786682 7:-2.0026915073394775 8:-1.242114543914795 
-12.0 -12.0 1:1.038455605506897 2:0.88759446144104 3:-0.6064680814743042 4:0.06032894179224968 5:-0.30829304456710815 6:0.05867627263069153 7:-1.0715641975402832 8:-1.242114543914795 
-12.0 -12.0 1:0.9988036155700684 2:1.0074951648712158 3:-0.5830572247505188 4:0.03816432133316994 5:-0.26714420318603516 6:0.2163694202899933 7:-1.6955543756484985 8:-1.242114543914795 
-12.0 -12.0 1:1.0790367126464844 2:1.0016599893569946 3:-0.5242763757705688 4:0.07546409964561462 5:-0.18428178131580353 6:0.13704755902290344 7:-0.8278393149375916 8:-1.242114543914795 
-12.0 -7.06043785955427 1:1.0349730253219604 2:0.9744181632995605 3:-0.47246450185775757 4:0.04225756973028183 5:-0.13623733818531036 6:-0.06079438701272011 7:-1.8249421119689941 8:-1.242114543914795 
-7.1690298658601055 -0.0 1:1.1104605197906494 2:1.0768910646438599 3:-0.43140676617622375 4:0.1073051393032074 5:-0.08027383685112 6:-0.28476637601852417 7:-0.1753241866827011 8:-1.242114543914795 
-12.0 -0.0 1:1.4588831663131714 2:0.9407733082771301 3:-0.6234055161476135 4:0.13735568523406982 5:-0.31712818145751953 6:-0.23783773183822632 7:-1.7037227153778076 8:-1.242114543914795 
-12.0 -0.0 1:1.4165050983428955 2:0.8797863721847534 3:-0.5213141441345215 4:0.22525788843631744 5:-0.2487086057662964 6:-0.2815687656402588 7:-1.5660591125488281 8:-1.242114543914795 
