svm_type c_svc
kernel_type rbf
gamma 0.0016051364364102483
nr_class 3
total_sv 256
rho 0.29233825798956964 0.5035529267495867 0.6951456204095858
label 1 2 3
probA -4.286658956347135 -3.8814731157405213 -2.3017045321318363
probB 0.3717166630424647 0.23458151606917607 -0.010556991431170955
nr_sv 26 117 113
SV
6.0 6.0 1:-0.2523617744445801 2:-0.27046045660972595 3:-0.06473202258348465 4:-0.6302282214164734 5:-0.19303974509239197 6:-0.6927540898323059 7:-0.9604008793830872 8:0.6481457948684692 
6.0 6.0 1:-0.22978036105632782 2:-0.27285751700401306 3:-0.06632892787456512 4:-0.6141433715820312 5:-0.1943598985671997 6:-0.8687376976013184 7:-1.004989504814148 8:0.6481457948684692 
6.0 6.0 1:-0.25841662287712097 2:-0.2694123685359955 3:-0.06339162588119507 4:-0.6272070407867432 5:-0.19161376357078552 6:-1.3116631507873535 7:-0.6963509917259216 8:0.6481457948684692 
6.0 0.0 1:-0.2696518898010254 2:-0.27095121145248413 3:-0.06379221379756927 4:-0.6308065056800842 5:-0.19207261502742767 6:-1.400733232498169 7:-0.6374872326850891 8:0.6481457948684692 
6.0 0.0 1:-0.2802063524723053 2:-0.2694912850856781 3:-0.06209379807114601 4:-0.6358458995819092 5:-0.19044093787670135 6:-1.5061944723129272 7:-0.6008651256561279 8:0.6481457948684692 
0.0 6.0 1:-0.30711230635643005 2:-0.2680720388889313 3:-0.0631023719906807 4:-0.6477558612823486 5:-0.19074255228042603 6:-1.1576069593429565 7:-0.8025188446044922 8:0.6481457948684692 
6.0 0.0 1:-0.28247949481010437 2:-0.2684197425842285 3:-0.06112779304385185 4:-0.6345986723899841 5:-0.18931163847446442 6:-1.4487411975860596 7:-0.6197459101676941 8:0.6481457948684692 
6.0 0.0 1:-0.27656611800193787 2:-0.26967376470565796 3:-0.06615210324525833 4:-0.6336043477058411 5:-0.1934768259525299 6:-1.56169593334198 7:-0.5585771799087524 8:0.6481457948684692 
6.0 0.0 1:-0.2676636874675751 2:-0.26972803473472595 3:-0.06303469836711884 4:-0.6284962296485901 5:-0.1912231594324112 6:-1.285003662109375 7:-0.7400608062744141 8:0.6481457948684692 
6.0 6.0 1:-0.2673085033893585 2:-0.26864293217658997 3:-0.0643128752708435 4:-0.6289170980453491 5:-0.1919133961200714 6:-1.1514110565185547 7:-0.7693595886230469 8:0.6481457948684692 
0.0 6.0 1:-0.22935092449188232 2:-0.2700880765914917 3:-0.06118128076195717 4:-0.6092290282249451 5:-0.19007505476474762 6:-1.2225810289382935 7:-0.8558787107467651 8:0.6481457948684692 
0.0 6.0 1:-0.26417097449302673 2:-0.2677822709083557 3:-0.06114307790994644 4:-0.6264455914497375 5:-0.1891237497329712 6:-1.148131012916565 7:-0.895845353603363 8:0.6481457948684692 
6.0 6.0 1:-0.25446635484695435 2:-0.26776254177093506 3:-0.06116709113121033 4:-0.6214854121208191 5:-0.18911880254745483 6:-0.9984545111656189 7:-0.913646399974823 8:0.6481457948684692 
4.530536684521822 6.0 1:-0.2774837017059326 2:-0.2681509554386139 3:-0.061136528849601746 4:-0.6321519613265991 5:-0.1891949474811554 6:-0.9478200078010559 7:-0.9620519876480103 8:0.6481457948684692 
6.0 6.0 1:-0.2849749028682709 2:-0.26827916502952576 3:-0.06100117787718773 4:-0.635826826095581 5:-0.18923449516296387 6:-0.9456913471221924 7:-0.9189895987510681 8:0.6481457948684692 
0.0 6.0 1:-0.28259387612342834 2:-0.26794254779815674 3:-0.06103392317891121 4:-0.6348162293434143 5:-0.18910594284534454 6:-1.0793609619140625 7:-0.9606127142906189 8:0.6481457948684692 
0.0 6.0 1:-0.25033846497535706 2:-0.26883283257484436 3:-0.0612085685133934 4:-0.6194738149642944 5:-0.18963401019573212 6:-0.9565859436988831 7:-0.9899560809135437 8:0.6481457948684692 
0.0 6.0 1:-0.26424622535705566 2:-0.26864540576934814 3:-0.06107649207115173 4:-0.6261688470840454 5:-0.18939469754695892 6:-0.9420283436775208 7:-1.0191614627838135 8:0.6481457948684692 
0.0 6.0 1:-0.2378474771976471 2:-0.26874157786369324 3:-0.0609673410654068 4:-0.6142693758010864 5:-0.18923351168632507 6:-1.0757578611373901 7:-0.9766747355461121 8:0.6481457948684692 
6.0 6.0 1:-0.24986788630485535 2:-0.26894503831863403 3:-0.06094441935420036 4:-0.6188993453979492 5:-0.18949458003044128 6:-1.014825701713562 7:-0.9492746591567993 8:0.6481457948684692 
6.0 6.0 1:-0.2186293751001358 2:-0.26858991384506226 3:-0.06454318761825562 4:-0.6069674491882324 5:-0.19195987284183502 6:-1.1646311283111572 7:-0.884455144405365 8:0.6481457948684692 
0.0 6.0 1:-0.25724518299102783 2:-0.26776623725891113 3:-0.06150218844413757 4:-0.622670590877533 5:-0.1893976628780365 6:-1.1603379249572754 7:-0.8514295220375061 8:0.6481457948684692 
0.0 6.0 1:-0.26228412985801697 2:-0.26887351274490356 3:-0.060990262776613235 4:-0.6259903907775879 5:-0.1893492192029953 6:-1.1502158641815186 7:-0.9051141142845154 8:0.6481457948684692 
0.0 6.0 1:-0.2631555497646332 2:-0.26892778277397156 3:-0.06098807975649834 4:-0.6250991225242615 5:-0.18936899304389954 6:-1.0845117568969727 7:-0.931142270565033 8:0.6481457948684692 
0.0 0.7723986183579633 1:-0.2572537064552307 2:-0.26800790429115295 3:-0.06098262220621109 4:-0.6227125525474548 5:-0.1890990287065506 6:-1.1604031324386597 7:-0.9038920998573303 8:0.6481457948684692 
0.0 6.0 1:-0.252970814704895 2:-0.2685405910015106 3:-0.061026282608509064 4:-0.6215330958366394 5:-0.18920482695102692 6:-1.170485258102417 7:-0.8569203615188599 8:0.6481457948684692 
-0.0 6.0 1:1.678073525428772 2:0.274056077003479 3:-0.10999226570129395 4:1.1497386693954468 5:-0.044762980192899704 6:-1.041164755821228 7:0.9924544095993042 8:-1.5428637266159058 
-0.0 6.0 1:1.696958065032959 2:0.2244204878807068 3:-0.24857603013515472 4:1.1360909938812256 5:-0.17249462008476257 6:-1.0011017322540283 7:1.0589543581008911 8:-1.5428637266159058 
-0.0 6.0 1:1.6055155992507935 2:0.2666318118572235 3:-0.15406164526939392 4:1.210612177848816 5:-0.09062659740447998 6:-0.974024772644043 7:0.8344333171844482 8:-1.5428637266159058 
-0.0 6.0 1:1.4956984519958496 2:0.20422545075416565 3:-0.09919267892837524 4:1.140056848526001 5:-0.0644843652844429 6:-0.9460583329200745 7:0.8613717555999756 8:-1.5428637266159058 
-0.0 6.0 1:1.5278927087783813 2:0.12957973778247833 3:-0.15518592298030853 4:1.1354039907455444 5:-0.11885933578014374 6:-0.902870774269104 7:0.5361053347587585 8:-1.5428637266159058 
-0.0 6.0 1:1.531062364578247 2:0.07555817812681198 3:-0.2153247892856598 4:1.1306194067001343 5:-0.17056627571582794 6:-0.9301977157592773 7:0.5638605952262878 8:-1.5428637266159058 
-0.0 6.0 1:1.5008362531661987 2:0.06828559190034866 3:-0.22155633568763733 4:1.10518479347229 5:-0.18025441467761993 6:-0.8964675068855286 7:0.7791193723678589 8:-1.5428637266159058 
-6.0 6.0 1:1.4684313535690308 2:0.10431188344955444 3:-0.24020728468894958 4:1.0741697549819946 5:-0.18829110264778137 6:-0.9104560613632202 7:0.4801233410835266 8:-1.5428637266159058 
-0.0 6.0 1:1.510987401008606 2:0.0698935016989708 3:-0.2504785656929016 4:1.1052134037017822 5:-0.20458105206489563 6:-0.9372538328170776 7:0.6565157771110535 8:-1.5428637266159058 
-0.0 6.0 1:1.644944190979004 2:0.049977127462625504 3:-0.3366427719593048 4:1.1191149950027466 5:-0.2914281189441681 6:-0.9245230555534363 7:0.5698152780532837 8:-1.5428637266159058 
-0.0 6.0 1:1.6819605827331543 2:0.086123026907444 3:-0.3753865659236908 4:1.0898003578186035 5:-0.313245952129364 6:-0.9623111486434937 7:0.7360439300537109 8:-1.5428637266159058 
-0.0 6.0 1:1.6645009517669678 2:0.22530336678028107 3:-0.3880690336227417 4:1.089397668838501 5:-0.28426164388656616 6:-0.9419313073158264 7:0.5658277273178101 8:-1.5428637266159058 
-0.42948171511229827 6.0 1:1.5966989994049072 2:0.09526492655277252 3:-0.3187274932861328 4:1.0949820280075073 5:-0.2549539804458618 6:-0.7874563336372375 7:0.4514208734035492 8:-1.5428637266159058 
-0.0 6.0 1:1.617390513420105 2:0.11525282263755798 3:-0.3172179162502289 4:1.1062593460083008 5:-0.25612086057662964 6:-0.8284354209899902 7:0.48950397968292236 8:-1.5428637266159058 
-6.0 6.0 1:1.5906416177749634 2:0.18659639358520508 3:-0.4033820927143097 4:1.0728663206100464 5:-0.3126971125602722 6:-0.8179170489311218 7:0.5177230834960938 8:-1.5428637266159058 
-6.0 6.0 1:1.5966523885726929 2:0.21055227518081665 3:-0.4136424660682678 4:1.0940773487091064 5:-0.3140113353729248 6:-0.7729066610336304 7:0.38169050216674805 8:-1.5428637266159058 
-6.0 6.0 1:1.6562793254852295 2:0.17133235931396484 3:-0.41124874353408813 4:1.1055970191955566 5:-0.32382306456565857 6:-0.703967809677124 7:0.3339899182319641 8:-1.5428637266159058 
-0.0 6.0 1:1.6860774755477905 2:0.1899786740541458 3:-0.42200905084609985 4:1.1051084995269775 5:-0.3263259530067444 6:-0.6899207234382629 7:0.37317338585853577 8:-1.5428637266159058 
-0.0 6.0 1:1.7202813625335693 2:0.18437813222408295 3:-0.4341195523738861 4:1.1453396081924438 5:-0.3419404923915863 6:-0.7747654318809509 7:0.49241942167282104 8:-1.5428637266159058 
-0.0 6.0 1:1.6724014282226562 2:0.2302701324224472 3:-0.4483792781829834 4:1.1703753471374512 5:-0.3401970863342285 6:-0.8086751103401184 7:0.3886173665523529 8:-1.5428637266159058 
-0.0 6.0 1:1.6631784439086914 2:0.330593079328537 3:-0.3629365861415863 4:1.2004284858703613 5:-0.2412598729133606 6:-0.7267395853996277 7:0.32418346405029297 8:-1.5428637266159058 
-0.0 6.0 1:1.7301565408706665 2:0.34355005621910095 3:-0.3760676980018616 4:1.2312716245651245 5:-0.25094106793403625 6:-0.7729306221008301 7:0.44502079486846924 8:-1.5428637266159058 
-0.0 6.0 1:1.756058692932129 2:0.33757835626602173 3:-0.41362717747688293 4:1.21868896484375 5:-0.2828979790210724 6:-0.7797713279724121 7:0.6506121158599854 8:-1.5428637266159058 
-0.0 6.0 1:1.7419171333312988 2:0.42869895696640015 3:-0.3741127550601959 4:1.2337756156921387 5:-0.23520095646381378 6:-0.7550809383392334 7:0.5477138161659241 8:-1.5428637266159058 
-0.0 6.0 1:1.7764331102371216 2:0.4169294238090515 3:-0.384416788816452 4:1.2325160503387451 5:-0.26065394282341003 6:-0.8581196665763855 7:0.7043065428733826 8:-1.5428637266159058 
-0.0 6.0 1:1.7911937236785889 2:0.47478577494621277 3:-0.4217001497745514 4:1.2236911058425903 5:-0.2830868363380432 6:-0.9483757615089417 7:0.5945942997932434 8:-1.5428637266159058 
-0.0 6.0 1:1.8317952156066895 2:0.5268208980560303 3:-0.3722997307777405 4:1.2412569522857666 5:-0.2374902367591858 6:-0.9460064768791199 7:0.6045289635658264 8:-1.5428637266159058 
-0.0 6.0 1:1.8001047372817993 2:0.5989598035812378 3:-0.3342086374759674 4:1.2810758352279663 5:-0.18790346384048462 6:-1.1475353240966797 7:0.4809141159057617 8:-1.5428637266159058 
-0.0 6.0 1:1.7955865859985352 2:0.5938906669616699 3:-0.33836519718170166 4:1.2679721117019653 5:-0.18109199404716492 6:-1.1565287113189697 7:0.727679967880249 8:-1.5428637266159058 
-0.0 6.0 1:1.8085410594940186 2:0.5185544490814209 3:-0.4322071969509125 4:1.2366001605987549 5:-0.2615449130535126 6:-1.2164663076400757 7:0.6192907691001892 8:-1.5428637266159058 
-0.0 6.0 1:1.9120750427246094 2:0.37550970911979675 3:-0.4602125585079193 4:1.293076515197754 5:-0.32026901841163635 6:-1.2274020910263062 7:0.6435603499412537 8:-1.5428637266159058 
-0.0 6.0 1:1.9235727787017822 2:0.3061143755912781 3:-0.4917882978916168 4:1.2523090839385986 5:-0.3580346405506134 6:-1.2279446125030518 7:0.7445512413978577 8:-1.5428637266159058 
-0.0 6.0 1:1.837249517440796 2:0.2722989618778229 3:-0.42375221848487854 4:1.1462996006011963 5:-0.3037971258163452 6:-1.186736822128296 7:0.8678065538406372 8:-1.5428637266159058 
-0.0 6.0 1:1.7661546468734741 2:0.3300394117832184 3:-0.3180060088634491 4:1.1515880823135376 5:-0.20727774500846863 6:-1.1245429515838623 7:0.6552916169166565 8:-1.5428637266159058 
-0.0 6.0 1:1.7647578716278076 2:0.2922806739807129 3:-0.2812793254852295 4:1.1477901935577393 5:-0.1798904985189438 6:-1.1008270978927612 7:0.7874420285224915 8:-1.5428637266159058 
-0.0 6.0 1:1.7354031801223755 2:0.21014906466007233 3:-0.17868980765342712 4:1.154431700706482 5:-0.11371711641550064 6:-1.0639630556106567 7:0.7700819373130798 8:-1.5428637266159058 
-0.0 6.0 1:0.37153032422065735 2:0.6266592144966125 3:1.059017539024353 4:0.6634628176689148 5:0.9912044405937195 6:1.0387436151504517 7:0.935379683971405 8:0.6481457948684692 
-0.0 6.0 1:0.33038201928138733 2:0.6288072466850281 3:1.0638498067855835 4:0.6451259851455688 5:0.9956346750259399 6:0.8838590979576111 7:1.0147264003753662 8:0.6481457948684692 
-0.0 6.0 1:0.33311671018600464 2:0.6292647123336792 3:1.0646520853042603 4:0.6464504599571228 5:0.9966136813163757 6:0.8846714496612549 7:1.035810112953186 8:0.6481457948684692 
-0.0 6.0 1:0.3168058693408966 2:0.6291598677635193 3:1.0651508569717407 4:0.639116108417511 5:0.9969815611839294 6:0.9884600639343262 7:1.041810393333435 8:0.6481457948684692 
-0.0 6.0 1:0.3126303553581238 2:0.6298960447311401 3:1.0631370544433594 4:0.6353124380111694 5:0.9955832362174988 6:0.9459319710731506 7:1.046936273574829 8:0.6481457948684692 
-0.0 6.0 1:0.31884071230888367 2:0.6303583979606628 3:1.063130497932434 4:0.6370148658752441 5:0.9957236647605896 6:0.8464658856391907 7:1.020923376083374 8:0.6481457948684692 
-0.0 6.0 1:0.3604375422000885 2:0.6303991079330444 3:1.0654467344284058 4:0.6596840023994446 5:0.9975511431694031 6:1.1553055047988892 7:1.036511778831482 8:0.6481457948684692 
-0.0 6.0 1:0.33085811138153076 2:0.63020920753479 3:1.0655525922775269 4:0.6456984877586365 5:0.9976183772087097 6:1.187107801437378 7:1.0687108039855957 8:0.6481457948684692 
-0.0 6.0 1:0.36173591017723083 2:0.6303263306617737 3:1.064240574836731 4:0.6591247916221619 5:0.9965790510177612 6:1.1227997541427612 7:1.0265673398971558 8:0.6481457948684692 
-0.0 6.0 1:0.3768978714942932 2:0.6303620934486389 3:1.0650134086608887 4:0.6674420237541199 5:0.9972307682037354 6:1.18426513671875 7:0.994367241859436 8:0.6481457948684692 
-0.0 6.0 1:0.3739865720272064 2:0.6291253566741943 3:1.0646138191223145 4:0.6659877300262451 5:0.9965859651565552 6:1.107470989227295 7:1.0215446949005127 8:0.6481457948684692 
-0.0 6.0 1:0.39528167247772217 2:0.6288984417915344 3:1.0652447938919067 4:0.6760379076004028 5:0.9969756007194519 6:1.0335369110107422 7:1.029779314994812 8:0.6481457948684692 
-0.0 4.87804771907514 1:0.40011391043663025 2:0.630108118057251 3:1.065535068511963 4:0.6786353588104248 5:0.9974977374076843 6:0.9526729583740234 7:1.069021463394165 8:0.6481457948684692 
-0.0 6.0 1:0.37052345275878906 2:0.6300649642944336 3:1.0650057792663574 4:0.6646861433982849 5:0.9971249103546143 6:0.8106189966201782 7:0.9918265342712402 8:0.6481457948684692 
-0.0 6.0 1:0.3956795036792755 2:0.6303460597991943 3:1.06548273563385 4:0.6767116189002991 5:0.9975728988647461 6:0.8477715253829956 7:1.0070381164550781 8:0.6481457948684692 
-0.0 6.0 1:0.36515089869499207 2:0.6295433640480042 3:1.0655220746994019 4:0.6623883247375488 5:0.9973375201225281 6:0.9046750068664551 7:1.0126538276672363 8:0.6481457948684692 
-0.0 6.0 1:0.3357159495353699 2:0.6293250918388367 3:1.0651912689208984 4:0.6477844715118408 5:0.9969004392623901 6:0.8056290745735168 7:0.9749194383621216 8:0.6481457948684692 
-0.0 6.0 1:0.3660403788089752 2:0.6296592950820923 3:1.0647623538970947 4:0.6621936559677124 5:0.9968015551567078 6:0.973365306854248 7:1.0172442197799683 8:0.6481457948684692 
-0.0 6.0 1:0.3771316707134247 2:0.6301636099815369 3:1.0653822422027588 4:0.6679058074951172 5:0.997420608997345 6:0.7514711618423462 7:0.968671441078186 8:0.6481457948684692 
-0.0 6.0 1:0.28928887844085693 2:0.6272128820419312 3:1.0641216039657593 4:0.6253100037574768 5:0.9956702589988708 6:1.1104013919830322 7:0.888287365436554 8:0.6481457948684692 
-0.0 6.0 1:0.3886087238788605 2:0.6276074647903442 3:1.0598340034484863 4:0.6694803237915039 5:0.9920252561569214 6:0.8221291899681091 7:0.8418163657188416 8:0.6481457948684692 
-0.0 6.0 1:0.40202584862709045 2:0.6291389465332031 3:1.0599169731140137 4:0.6760245561599731 5:0.9926680326461792 6:0.802521824836731 7:0.9290654063224792 8:0.6481457948684692 
-0.0 6.0 1:0.3815178871154785 2:0.6297702193260193 3:1.0612825155258179 4:0.6671385765075684 5:0.9940919876098633 6:0.8641679286956787 7:0.9635933041572571 8:0.6481457948684692 
-0.0 6.0 1:0.37609416246414185 2:0.6295926570892334 3:1.0619767904281616 4:0.6656938195228577 5:0.9946398735046387 6:0.8357693552970886 7:0.911979079246521 8:0.6481457948684692 
-0.0 6.0 1:0.3502553105354309 2:0.6293485164642334 3:1.0638083219528198 4:0.6541130542755127 5:0.9959709048271179 6:1.119580864906311 7:0.8680585622787476 8:0.6481457948684692 
-0.0 6.0 1:0.2695655822753906 2:0.629169762134552 3:1.0646815299987793 4:0.6155938506126404 5:0.9965701699256897 6:1.1378799676895142 7:0.8541961312294006 8:0.6481457948684692 
-0.0 6.0 1:0.28050485253334045 2:0.6271857619285583 3:1.0619429349899292 4:0.6191646456718445 5:0.9939812421798706 6:1.2157256603240967 7:1.041974425315857 8:0.6481457948684692 
-0.0 6.0 1:0.2770577669143677 2:0.626532256603241 3:1.0641063451766968 4:0.6192162036895752 5:0.995132327079773 6:1.090264916419983 7:1.0479453802108765 8:0.6481457948684692 
-0.0 6.0 1:0.2638935148715973 2:0.628000795841217 3:1.064566969871521 4:0.6135574579238892 5:0.9960025548934937 6:0.7898429036140442 7:0.9997842311859131 8:0.6481457948684692 
-0.0 6.0 1:0.2750811278820038 2:0.6292252540588379 3:1.065271019935608 4:0.618830680847168 5:0.9968717694282532 6:1.153019905090332 7:0.97870272397995 8:0.6481457948684692 
-0.0 6.0 1:0.3214344382286072 2:0.6296987533569336 3:1.0645428895950317 4:0.6409940719604492 5:0.9965583086013794 6:0.9495497941970825 7:0.9754875302314758 8:0.6481457948684692 
-0.0 6.0 1:0.2896420657634735 2:0.6300402879714966 3:1.0650439262390137 4:0.626094400882721 5:0.9971219897270203 6:1.0416247844696045 7:1.0043236017227173 8:0.6481457948684692 
-0.0 6.0 1:0.31124618649482727 2:0.628035306930542 3:1.0654107332229614 4:0.6366865634918213 5:0.9969874620437622 6:0.863072395324707 7:1.073448896408081 8:0.6481457948684692 
-0.0 6.0 1:0.3202369213104248 2:0.6284138560295105 3:1.0652130842208862 4:0.6408604383468628 5:0.9967659711837769 6:0.7700706720352173 7:0.89753657579422 8:0.6481457948684692 
-0.0 6.0 1:0.3091912865638733 2:0.6298380494117737 3:1.0655831098556519 4:0.6350300312042236 5:0.9974561929702759 6:0.568782389163971 7:0.8749908804893494 8:0.6481457948684692 
-6.0 0.0 1:0.24059772491455078 2:0.6304520964622498 3:1.0650678873062134 4:0.6027153134346008 5:0.9972960352897644 6:-0.11142705380916595 7:0.6611768007278442 8:0.6481457948684692 
-6.0 6.0 1:0.28059667348861694 2:0.6303436160087585 3:1.0627855062484741 4:0.6198192834854126 5:0.9954625964164734 6:-0.07133878767490387 7:0.5981549620628357 8:0.6481457948684692 
-0.0 6.0 1:0.33330434560775757 2:0.6304817199707031 3:1.06467604637146 4:0.6465916633605957 5:0.9969894289970398 6:-0.014469854533672333 7:0.583730936050415 8:0.6481457948684692 
-0.0 6.0 1:0.40095624327659607 2:0.6301611065864563 3:1.0655525922775269 4:0.6793376803398132 5:0.9975778460502625 6:0.16150979697704315 7:0.6224440932273865 8:0.6481457948684692 
-0.0 6.0 1:0.33670276403427124 2:0.6304175853729248 3:1.0655263662338257 4:0.6489315032958984 5:0.9976203441619873 6:0.27398189902305603 7:0.6333574056625366 8:0.6481457948684692 
-0.0 6.0 1:0.35771387815475464 2:0.6303633451461792 3:1.0624592304229736 4:0.6564853191375732 5:0.995226263999939 6:0.11086065322160721 7:0.620784342288971 8:0.6481457948684692 
-0.0 6.0 1:0.35574376583099365 2:0.6297973990440369 3:1.0639152526855469 4:0.6569376587867737 5:0.9961894750595093 6:0.277982622385025 7:0.5481624603271484 8:0.6481457948684692 
-0.0 6.0 1:0.3247019350528717 2:0.6297640800476074 3:1.0646214485168457 4:0.6425704956054688 5:0.9967422485351562 6:0.011721605435013771 7:0.6285204291343689 8:0.6481457948684692 
-0.0 0.14000470512162397 1:0.3350396752357483 2:0.6303300261497498 3:1.0653877258300781 4:0.6479047536849976 5:0.9974839091300964 6:0.07630345225334167 7:0.6556750535964966 8:0.6481457948684692 
-0.0 6.0 1:0.36205899715423584 2:0.6303991079330444 3:1.0655744075775146 4:0.660962700843811 5:0.9976480603218079 6:0.04179943725466728 7:0.5966917872428894 8:0.6481457948684692 
-0.0 6.0 1:0.334103524684906 2:0.6301623582839966 3:1.0632996559143066 4:0.6466031670570374 5:0.9958354234695435 6:0.11421386152505875 7:0.5578081607818604 8:0.6481457948684692 
-0.0 6.0 1:0.3439962863922119 2:0.6303744316101074 3:1.0647600889205933 4:0.6519087553024292 5:0.9970072507858276 6:0.23257070779800415 7:0.612536609172821 8:0.6481457948684692 
-0.0 6.0 1:0.2988821268081665 2:0.6290723085403442 3:1.0654107332229614 4:0.6307549476623535 5:0.9972416162490845 6:0.07147440314292908 7:0.6613962054252625 8:0.6481457948684692 
-6.0 0.0 1:0.2503003478050232 2:0.6303756833076477 3:1.0646051168441772 4:0.6069808006286621 5:0.9968846440315247 6:-0.2039155215024948 7:0.7522591352462769 8:0.6481457948684692 
-0.0 6.0 1:0.29469606280326843 2:0.6303707361221313 3:1.065578818321228 4:0.6286937594413757 5:0.9976500272750854 6:0.008380362764000893 7:0.6228644847869873 8:0.6481457948684692 
-6.0 0.0 1:0.3120388686656952 2:0.6302918195724487 3:1.065626859664917 4:0.6369251608848572 5:0.9976678490638733 6:-0.23508892953395844 7:0.6498832702636719 8:0.6481457948684692 
-4.101054969409524 0.0 1:0.30487778782844543 2:0.6301870346069336 3:1.0653680562973022 4:0.6333677172660828 5:0.9974403977394104 6:-0.21674200892448425 7:0.7000430822372437 8:0.6481457948684692 
-0.0 6.0 1:0.32423436641693115 2:0.630195677280426 3:1.0655438899993896 4:0.6422727704048157 5:0.9975571036338806 6:0.07799069583415985 7:0.63390052318573 8:0.6481457948684692 
-0.0 6.0 1:0.3147795796394348 2:0.6303793787956238 3:1.0656311511993408 4:0.638230562210083 5:0.9976925253868103 6:0.10351869463920593 7:0.6491881012916565 8:0.6481457948684692 
-0.0 6.0 1:0.32579460740089417 2:0.6301759481430054 3:1.065638780593872 4:0.6436488032341003 5:0.9976282715797424 6:0.12429475784301758 7:0.6277133822441101 8:0.6481457948684692 
-6.0 6.0 1:0.26054278016090393 2:0.6300045251846313 3:1.06556236743927 4:0.6125841736793518 5:0.997464120388031 6:-0.016980107873678207 7:0.5920242667198181 8:0.6481457948684692 
-0.0 6.0 1:0.30681028962135315 2:0.629839301109314 3:1.065611481666565 4:0.6339879631996155 5:0.9974967837333679 6:0.03459176793694496 7:0.5948278307914734 8:0.6481457948684692 
-0.0 6.0 1:0.29542601108551025 2:0.6291635632514954 3:1.0655471086502075 4:0.6289094686508179 5:0.9970784783363342 6:0.046213652938604355 7:0.5965136885643005 8:0.6481457948684692 
-6.0 6.0 1:0.29103225469589233 2:0.6291759014129639 3:1.0633422136306763 4:0.6258997321128845 5:0.9954250454902649 6:-0.031210636720061302 7:0.5422261953353882 8:0.6481457948684692 
-6.0 6.0 1:0.23956826329231262 2:0.6301056146621704 3:1.0643212795257568 4:0.6019023060798645 5:0.9965523481369019 6:-0.11062132567167282 7:0.5244609713554382 8:0.6481457948684692 
-0.0 6.0 1:0.3150680363178253 2:0.6304175853729248 3:1.0652939081192017 4:0.6384958624839783 5:0.9974393844604492 6:0.12936446070671082 7:0.5342695713043213 8:0.6481457948684692 
-0.0 6.0 1:0.30954697728157043 2:0.6304459571838379 3:1.065485954284668 4:0.6356979608535767 5:0.997608482837677 6:0.18733030557632446 7:0.5570347309112549 8:0.6481457948684692 
-0.0 6.0 1:0.31687361001968384 2:0.6299626231193542 3:1.0655111074447632 4:0.6392955183982849 5:0.9974067807197571 6:0.16561554372310638 7:0.5680621266365051 8:0.6481457948684692 
-0.0 6.0 1:0.3672785460948944 2:0.6298577785491943 3:1.0655711889266968 4:0.6633998155593872 5:0.9974809288978577 6:0.19828739762306213 7:0.6013224124908447 8:0.6481457948684692 
-0.0 6.0 1:0.3475411832332611 2:0.6302462220191956 3:1.0656148195266724 4:0.6537867188453674 5:0.997608482837677 6:0.1605032980442047 7:0.5989381074905396 8:0.6481457948684692 
-0.0 6.0 1:0.3065885305404663 2:0.6290723085403442 3:1.0642437934875488 4:0.6333237886428833 5:0.9963110685348511 6:0.17174093425273895 7:0.5440999269485474 8:0.6481457948684692 
-0.0 6.0 1:0.36397993564605713 2:0.6301574110984802 3:1.0651956796646118 4:0.6613309979438782 5:0.9972435832023621 6:0.19651639461517334 7:0.608832597732544 8:0.6481457948684692 
-0.0 6.0 1:0.325905978679657 2:0.630146324634552 3:1.0655274391174316 4:0.643683135509491 5:0.9975135922431946 6:0.02827358804643154 7:0.6283347010612488 8:0.6481457948684692 
-0.0 6.0 1:0.32718124985694885 2:0.6304607391357422 3:1.065582036972046 4:0.6442556977272034 5:0.9976836442947388 6:0.04098307341337204 7:0.6254518628120422 8:0.6481457948684692 
-0.0 6.0 1:0.3588416874408722 2:0.6305224299430847 3:1.0655983686447144 4:0.6592755913734436 5:0.997724175453186 6:0.1918921023607254 7:0.5495223999023438 8:0.6481457948684692 
-0.0 6.0 1:0.32239317893981934 2:0.6305075883865356 3:1.0646084547042847 4:0.6412956118583679 5:0.9969538450241089 6:0.2288292497396469 7:0.5284625887870789 8:0.6481457948684692 
-0.0 6.0 1:0.3169313073158264 2:0.6303362250328064 3:1.0653386116027832 4:0.6390283107757568 5:0.9974393844604492 6:0.045946408063173294 7:0.5560397505760193 8:0.6481457948684692 
-0.0 6.0 1:0.3464851379394531 2:0.6303583979606628 3:1.0655580759048462 4:0.6532981395721436 5:0.9976183772087097 6:0.13085626065731049 7:0.552851676940918 8:0.6481457948684692 
-0.0 6.0 1:0.31582558155059814 2:0.6296641826629639 3:1.0646542310714722 4:0.6384519338607788 5:0.996773898601532 6:0.16350816190242767 7:0.5444030165672302 8:0.6481457948684692 
-0.0 6.0 1:0.3055334985256195 2:0.6302585601806641 3:1.0652469396591187 4:0.6338810920715332 5:0.9973355531692505 6:0.17164254188537598 7:0.5875598788261414 8:0.6481457948684692 
-6.0 6.0 1:0.2658129930496216 2:0.6303633451461792 3:1.0644184350967407 4:0.6144564151763916 5:0.9967560768127441 6:0.03905517980456352 7:0.5651021599769592 8:0.6481457948684692 
-6.0 6.0 1:0.24297872185707092 2:0.6289379000663757 3:1.0641106367111206 4:0.6035054326057434 5:0.9961726069450378 6:-0.11278854310512543 7:0.5809458494186401 8:0.6481457948684692 
-0.0 6.0 1:0.30645108222961426 2:0.6300526261329651 3:1.0640811920166016 4:0.6337742209434509 5:0.9963427186012268 6:0.111615851521492 7:0.5642353296279907 8:0.6481457948684692 
-0.0 6.0 1:0.33739709854125977 2:0.6304200887680054 3:1.0650930404663086 4:0.6488971710205078 5:0.9972821474075317 6:0.25367119908332825 7:0.6427880525588989 8:0.6481457948684692 
-0.0 6.0 1:0.3218739330768585 2:0.6305224299430847 3:1.0654412508010864 4:0.6417021155357361 5:0.9975996017456055 6:0.32949334383010864 7:0.637906551361084 8:0.6481457948684692 
-0.0 6.0 1:0.3194728493690491 2:0.6305298209190369 3:1.0655394792556763 4:0.6407116055488586 5:0.9976856112480164 6:0.3176613748073578 7:0.5220495462417603 8:0.6481457948684692 
-0.0 -6.0 1:2.5092222690582275 2:0.030653854832053185 3:-0.08327600359916687 4:1.7065203189849854 5:-0.10295208543539047 6:-1.8875281810760498 7:2.0522189140319824 8:-1.5428637266159058 
-0.0 -6.0 1:2.215104579925537 2:0.1317104697227478 3:-0.12372587621212006 4:1.473776936531067 5:-0.10602159798145294 6:-1.6577104330062866 7:2.237043857574463 8:-1.5428637266159058 
-0.0 -6.0 1:2.2702832221984863 2:0.2511335015296936 3:-0.07834229618310928 4:1.5031297206878662 5:-0.049045853316783905 6:-1.6663786172866821 7:1.9117285013198853 8:-1.5428637266159058 
-0.0 -6.0 1:2.2239253520965576 2:0.4211477041244507 3:-0.1667746752500534 4:1.4304711818695068 5:-0.0821409523487091 6:-1.7447402477264404 7:1.9697178602218628 8:-1.5428637266159058 
-0.0 -6.0 1:2.2581212520599365 2:0.35943803191185 3:-0.24969375133514404 4:1.404590129852295 5:-0.16329894959926605 6:-1.782338261604309 7:1.957579255104065 8:-1.5428637266159058 
-0.0 -6.0 1:2.5033273696899414 2:0.16493400931358337 3:-0.35069072246551514 4:1.4610377550125122 5:-0.278410404920578 6:-1.6254408359527588 7:1.83553946018219 8:-1.5428637266159058 
-0.0 -6.0 1:2.382249593734741 2:0.11595689505338669 3:-0.3312768042087555 4:1.416392207145691 5:-0.26754847168922424 6:-1.5335206985473633 7:1.9066689014434814 8:-1.5428637266159058 
-0.0 -6.0 1:2.4437882900238037 2:0.09187771379947662 3:-0.3195396065711975 4:1.4184839725494385 5:-0.2778734266757965 6:-1.4393084049224854 7:1.8139257431030273 8:-1.5428637266159058 
-0.0 -6.0 1:2.3422701358795166 2:0.1259385049343109 3:-0.30245062708854675 4:1.3672178983688354 5:-0.25140586495399475 6:-1.5822871923446655 7:1.8584229946136475 8:-1.5428637266159058 
-0.0 -6.0 1:1.7349787950515747 2:0.15670333802700043 3:-0.32966023683547974 4:1.050744891166687 5:-0.2525836229324341 6:-1.6368213891983032 7:1.8217835426330566 8:-1.5428637266159058 
-0.0 -6.0 1:2.0145695209503174 2:0.1753348708152771 3:-0.39413684606552124 4:1.1148189306259155 5:-0.3092152178287506 6:-1.630582332611084 7:1.7810076475143433 8:-1.5428637266159058 
-0.0 -6.0 1:2.0342438220977783 2:0.2803668677806854 3:-0.3872198462486267 4:1.1765512228012085 5:-0.2807876765727997 6:-1.7208882570266724 7:2.092231273651123 8:-1.5428637266159058 
-0.0 -6.0 1:1.9489871263504028 2:0.32384946942329407 3:-0.20317934453487396 4:1.2346324920654297 5:-0.11521033942699432 6:-1.5950405597686768 7:2.0343549251556396 8:-1.5428637266159058 
-0.0 -6.0 1:2.0718994140625 2:0.4511011838912964 3:-0.3450770080089569 4:1.275777816772461 5:-0.2037375271320343 6:-1.8273612260818481 7:2.025371789932251 8:-1.5428637266159058 
-0.0 -6.0 1:2.2345950603485107 2:0.34013816714286804 3:-0.32470253109931946 4:1.3451899290084839 5:-0.21854117512702942 6:-1.7150906324386597 7:1.8944586515426636 8:-1.5428637266159058 
-0.0 -6.0 1:2.3904471397399902 2:0.25307801365852356 3:-0.30713874101638794 4:1.4330285787582397 5:-0.2318951040506363 6:-1.580870509147644 7:1.7631511688232422 8:-1.5428637266159058 
-0.0 -6.0 1:2.388235569000244 2:0.2659190893173218 3:-0.26790809631347656 4:1.4646466970443726 5:-0.2023550570011139 6:-1.564494013786316 7:1.7342944145202637 8:-1.5428637266159058 
-0.0 -6.0 1:2.0796735286712646 2:0.3118394613265991 3:-0.23263971507549286 4:1.364059329032898 5:-0.16364604234695435 6:-1.4663554430007935 7:1.7640081644058228 8:-1.5428637266159058 
-0.0 -6.0 1:2.2238359451293945 2:0.30015870928764343 3:-0.45458024740219116 4:1.5520368814468384 5:-0.2273363322019577 6:-1.4888553619384766 7:1.756059169769287 8:-1.5428637266159058 
-0.0 -6.0 1:2.1830568313598633 2:-0.06233484670519829 3:-0.2001536339521408 4:1.4404507875442505 5:-0.22113798558712006 6:-1.5399844646453857 7:1.7370197772979736 8:-1.5428637266159058 
-0.0 -6.0 1:1.9288274049758911 2:-0.12811116874217987 3:-0.20663730800151825 4:1.2614221572875977 5:-0.2476194053888321 6:-1.7067620754241943 7:1.8336200714111328 8:-1.5428637266159058 
-0.0 -6.0 1:1.9030176401138306 2:-0.05104618892073631 3:-0.21444828808307648 4:1.19575834274292 5:-0.240112766623497 6:-1.9556407928466797 7:2.097623348236084 8:-1.5428637266159058 
-0.0 -6.0 1:1.8164777755737305 2:0.050199076533317566 3:-0.1440359503030777 4:1.1134257316589355 5:-0.16834622621536255 6:-1.8037770986557007 7:1.9092801809310913 8:-1.5428637266159058 
-0.0 -6.0 1:1.7578356266021729 2:0.06334102153778076 3:-0.1508907526731491 4:1.0369120836257935 5:-0.19338881969451904 6:-1.8289135694503784 7:2.040558338165283 8:-1.5428637266159058 
-0.5042800073475608 -6.0 1:1.764676570892334 2:0.11313195526599884 3:-0.2143118530511856 4:1.0178862810134888 5:-0.227086141705513 6:-1.9514905214309692 7:2.1132149696350098 8:-1.5428637266159058 
-0.0 -6.0 1:0.43181899189949036 2:0.7213988900184631 3:0.19945941865444183 4:0.5016564726829529 5:0.35793375968933105 6:1.169574499130249 7:0.17745696008205414 8:0.6481457948684692 
-0.0 -6.0 1:0.4525466561317444 2:0.7216677069664001 3:0.19986437261104584 4:0.5118746161460876 5:0.3586803674697876 6:1.324772834777832 7:0.14682969450950623 8:0.6481457948684692 
-0.0 -6.0 1:0.3160889744758606 2:0.7204592823982239 3:0.1907544732093811 4:0.4415425956249237 5:0.35137447714805603 6:0.927542507648468 7:-0.01703747548162937 8:0.6481457948684692 
-0.0 -6.0 1:0.4650276005268097 2:0.7237762212753296 3:0.19929896295070648 4:0.5170828700065613 5:0.35885146260261536 6:1.229832649230957 7:0.03240759298205376 8:0.6481457948684692 
-0.0 -6.0 1:0.24676544964313507 2:0.7230215668678284 3:0.1844443529844284 4:0.4067659378051758 5:0.3471806049346924 6:1.4691601991653442 7:0.4010058045387268 8:0.6481457948684692 
-0.0 -6.0 1:0.2699027359485626 2:0.7223643660545349 3:0.1820921003818512 4:0.4154782295227051 5:0.3451474606990814 6:1.31666898727417 7:0.5438598990440369 8:0.6481457948684692 
-0.0 -6.0 1:0.31318822503089905 2:0.7227034568786621 3:0.1923273652791977 4:0.4399890899658203 5:0.353167325258255 6:1.0661462545394897 7:0.7036232948303223 8:0.6481457948684692 
-0.0 -6.0 1:0.3120679557323456 2:0.718097984790802 3:0.19764748215675354 4:0.4426495134830475 5:0.35534387826919556 6:0.8788079619407654 7:0.735822319984436 8:0.6481457948684692 
-0.0 -6.0 1:0.26863595843315125 2:0.7233483195304871 3:0.19972248375415802 4:0.4245645999908447 5:0.3589898943901062 6:0.5977513790130615 7:0.6910176277160645 8:0.6481457948684692 
-0.0 -6.0 1:0.2434086799621582 2:0.7236183881759644 3:0.198443204164505 4:0.4119608700275421 5:0.3581196665763855 6:0.8728674054145813 7:0.6043616533279419 8:0.6481457948684692 
-0.0 -6.0 1:0.27566659450531006 2:0.7236528992652893 3:0.1991003006696701 4:0.4261830151081085 5:0.35866257548332214 6:1.0630669593811035 7:0.5286592245101929 8:0.6481457948684692 
-0.0 -6.0 1:0.22075150907039642 2:0.7239550352096558 3:0.19835588335990906 4:0.40071219205856323 5:0.3582007586956024 6:1.3199278116226196 7:0.35982581973075867 8:0.6481457948684692 
-0.0 -6.0 1:0.2952178120613098 2:0.7240610718727112 3:0.2000914216041565 4:0.43716832995414734 5:0.3595763146877289 6:1.3591665029525757 7:0.2320539951324463 8:0.6481457948684692 
-0.0 -6.0 1:0.3143857419490814 2:0.7227022051811218 3:0.19781994819641113 4:0.4454626441001892 5:0.3575194180011749 6:1.0012825727462769 7:0.2991676330566406 8:0.6481457948684692 
-0.0 -6.0 1:0.29366058111190796 2:0.7236368656158447 3:0.1984672248363495 4:0.43561670184135437 5:0.3581335246562958 6:0.9296672344207764 7:0.2999899089336395 8:0.6481457948684692 
-0.0 -6.0 1:0.20915654301643372 2:0.7237898111343384 3:0.19954456388950348 4:0.3957519829273224 5:0.3590700030326843 6:0.8762246370315552 7:0.33011534810066223 8:0.6481457948684692 
-0.0 -6.0 1:0.23339100182056427 2:0.7232558727264404 3:0.19988293945789337 4:0.4078156054019928 5:0.3592163622379303 6:1.1603871583938599 7:0.33174577355384827 8:0.6481457948684692 
-0.0 -6.0 1:0.3012219965457916 2:0.7237577438354492 3:0.19851525127887726 4:0.4387676417827606 5:0.3582472503185272 6:1.188439965248108 7:0.44899314641952515 8:0.6481457948684692 
-0.0 -6.0 1:0.27760612964630127 2:0.7239143252372742 3:0.1997486799955368 4:0.42837777733802795 5:0.3592648208141327 6:1.0945276021957397 7:0.3628411889076233 8:0.6481457948684692 
-0.0 -6.0 1:0.28313320875167847 2:0.7218613028526306 3:0.19993969798088074 4:0.4313702881336212 5:0.3588979244232178 6:1.2564854621887207 7:0.3303108513355255 8:0.6481457948684692 
-0.0 -6.0 1:0.2807772755622864 2:0.7234026193618774 3:0.2000979632139206 4:0.43050575256347656 5:0.3592994213104248 6:1.3138236999511719 7:0.23003795742988586 8:0.6481457948684692 
-0.0 -6.0 1:0.3226756155490875 2:0.7207256555557251 3:0.19984473288059235 4:0.4503026008605957 5:0.35854291915893555 6:1.539969801902771 7:0.30050477385520935 8:0.6481457948684692 
-0.0 -6.0 1:0.28612926602363586 2:0.7200289368629456 3:0.19979342818260193 4:0.43259936571121216 5:0.35812461376190186 6:1.1476244926452637 7:0.14161579310894012 8:0.6481457948684692 
-6.0 -6.0 1:0.27785998582839966 2:0.7239180207252502 3:0.200149267911911 4:0.4291907846927643 5:0.35957038402557373 6:0.3516375422477722 7:-0.3526882231235504 8:0.6481457948684692 
-6.0 -6.0 1:0.25078094005584717 2:0.7239353060722351 3:0.20012088119983673 4:0.416319876909256 5:0.3595505952835083 6:0.4879224896430969 7:-0.2339266538619995 8:0.6481457948684692 
-6.0 -6.0 1:0.30457979440689087 2:0.7237244248390198 3:0.19972029328346252 4:0.44158267974853516 5:0.35915306210517883 6:0.10587338358163834 7:-0.38009047508239746 8:0.6481457948684692 
-0.0 -6.0 1:0.3349057137966156 2:0.7234026193618774 3:0.19745537638664246 4:0.4548600912094116 5:0.35737505555152893 6:0.9249897599220276 7:0.06427749991416931 8:0.6481457948684692 
-0.0 -6.0 1:0.20027770102024078 2:0.7234346866607666 3:0.19961659610271454 4:0.39111435413360596 5:0.35892167687416077 6:0.9460117816925049 7:0.23226799070835114 8:0.6481457948684692 
-0.0 -6.0 1:0.302642285823822 2:0.7227613925933838 3:0.19896823167800903 4:0.43583428859710693 5:0.35826700925827026 6:0.5815982818603516 7:0.41506049036979675 8:0.6481457948684692 
-0.0 -6.0 1:0.2589910626411438 2:0.7217354774475098 3:0.19857746362686157 4:0.4135315716266632 5:0.3577705919742584 6:0.7522609233856201 7:0.414346843957901 8:0.6481457948684692 
-0.0 -6.0 1:0.24140894412994385 2:0.7224617600440979 3:0.19701658189296722 4:0.4020443260669708 5:0.3567144572734833 6:0.8293302059173584 7:0.49898675084114075 8:0.6481457948684692 
-0.0 -6.0 1:0.25829219818115234 2:0.7231362462043762 3:0.19873900711536407 4:0.41604888439178467 5:0.358154296875 6:0.534027099609375 7:0.48820921778678894 8:0.6481457948684692 
-0.0 -6.0 1:0.23191654682159424 2:0.723403811454773 3:0.1979651153087616 4:0.4048135578632355 5:0.3577389419078827 6:0.2372840791940689 7:0.4244661331176758 8:0.6481457948684692 
-0.0 -6.0 1:0.27845194935798645 2:0.7236812710762024 3:0.19856108725070953 4:0.4282403588294983 5:0.35826700925827026 6:0.32177242636680603 7:0.3643445372581482 8:0.6481457948684692 
-0.0 -6.0 1:0.33346739411354065 2:0.7222743630409241 3:0.19878266751766205 4:0.45379897952079773 5:0.358108788728714 6:0.7627806067466736 7:0.14997322857379913 8:0.6481457948684692 
-0.0 -6.0 1:0.2740045189857483 2:0.7211251258850098 3:0.19907192885875702 4:0.42474016547203064 5:0.3576400578022003 6:0.7505497336387634 7:-0.07442612200975418 8:0.6481457948684692 
-0.0 -6.0 1:0.2631324827671051 2:0.7214630246162415 3:0.19971156120300293 4:0.4203735291957855 5:0.35849642753601074 6:0.7452340722084045 7:-0.12457180768251419 8:0.6481457948684692 
-0.0 -6.0 1:0.2515670955181122 2:0.7197206616401672 3:0.19786252081394196 4:0.4142892360687256 5:0.35646626353263855 6:0.4899407923221588 7:-0.10976435244083405 8:0.6481457948684692 
-0.0 -6.0 1:0.21739773452281952 2:0.7226590514183044 3:0.19636493921279907 4:0.39550578594207764 5:0.3561171889305115 6:0.5087796449661255 7:-0.15532507002353668 8:0.6481457948684692 
-5.771759522047642 -6.0 1:0.24024303257465363 2:0.7225271463394165 3:0.19894422590732574 4:0.4054643511772156 5:0.3582254946231842 6:0.456855446100235 7:-0.1729404181241989 8:0.6481457948684692 
-0.0 -6.0 1:0.336591899394989 2:0.7219550013542175 3:0.19841483235359192 4:0.45431044697761536 5:0.3574996292591095 6:0.557406485080719 7:-0.041454777121543884 8:0.6481457948684692 
-0.0 -6.0 1:0.36513233184814453 2:0.7216430306434631 3:0.19942668080329895 4:0.466948539018631 5:0.3580830991268158 6:0.48738667368888855 7:-0.16835220158100128 8:0.6481457948684692 
-6.0 -6.0 1:0.3423783481121063 2:0.7227786779403687 3:0.19988839328289032 4:0.4582724869251251 5:0.35886627435684204 6:0.09735607355833054 7:-0.13664522767066956 8:0.6481457948684692 
-6.0 -6.0 1:0.3595314919948578 2:0.7232645153999329 3:0.19874447584152222 4:0.4653339385986328 5:0.3582363724708557 6:-0.13924990594387054 7:-0.06683556735515594 8:0.6481457948684692 
-6.0 -6.0 1:0.33938226103782654 2:0.7235320806503296 3:0.19936881959438324 4:0.456572026014328 5:0.35882672667503357 6:-0.050041522830724716 7:-0.025024505332112312 8:0.6481457948684692 
-6.0 -6.0 1:0.4040330946445465 2:0.7220031023025513 3:0.19890491664409637 4:0.4875717759132385 5:0.35786157846450806 6:0.05338010936975479 7:-0.07880796492099762 8:0.6481457948684692 
-0.0 -6.0 1:0.426121324300766 2:0.7186442017555237 3:0.1977348029613495 4:0.4970455467700958 5:0.3555634021759033 6:0.8192839026451111 7:-0.06399399787187576 8:0.6481457948684692 
-0.0 -6.0 1:0.3251163065433502 2:0.719894528388977 3:0.19507911801338196 4:0.4458290934562683 5:0.3538585603237152 6:1.6071110963821411 7:0.35536253452301025 8:0.6481457948684692 
-0.0 -6.0 1:0.3595731258392334 2:0.7179931998252869 3:0.19287750124931335 4:0.45999014377593994 5:0.35216161608695984 6:1.3357232809066772 7:0.49260082840919495 8:0.6481457948684692 
-0.0 -6.0 1:0.31429946422576904 2:0.7193372249603271 3:0.19670549035072327 4:0.4428289234638214 5:0.3553003668785095 6:0.5491737127304077 7:0.5859512090682983 8:0.6481457948684692 
-0.0 -6.0 1:0.3162449896335602 2:0.7228131890296936 3:0.1993589997291565 4:0.44555044174194336 5:0.35843512415885925 6:0.2618294954299927 7:0.6141170859336853 8:0.6481457948684692 
-0.0 -6.0 1:0.40123116970062256 2:0.7221695184707642 3:0.19989493489265442 4:0.4863751530647278 5:0.35879507660865784 6:0.7335630059242249 7:0.706339955329895 8:0.6481457948684692 
-0.0 -6.0 1:0.3297880291938782 2:0.717790961265564 3:0.19934698939323425 4:0.45196300745010376 5:0.3569587171077728 6:0.9338048696517944 7:0.5896389484405518 8:0.6481457948684692 
-0.0 -6.0 1:0.3904293477535248 2:0.7165233492851257 3:0.19951508939266205 4:0.4756493866443634 5:0.3566294312477112 6:1.1373627185821533 7:0.44246166944503784 8:0.6481457948684692 
-0.0 -6.0 1:0.41903600096702576 2:0.7189463376998901 3:0.1996908187866211 4:0.49225902557373047 5:0.3573809862136841 6:1.1192790269851685 7:0.37341997027397156 8:0.6481457948684692 
-0.0 -4.713197185605907 1:0.3929573595523834 2:0.7214864492416382 3:0.19932407140731812 4:0.48046642541885376 5:0.3578694760799408 6:1.4404531717300415 7:0.11318488419055939 8:0.6481457948684692 
-0.0 -6.0 1:0.3202444314956665 2:0.722709596157074 3:0.1955910474061966 4:0.4397676885128021 5:0.35550209879875183 6:0.7971423268318176 7:-0.07357343286275864 8:0.6481457948684692 
-0.0 -6.0 1:0.2632302939891815 2:0.7210092544555664 3:0.19959039986133575 4:0.4209727942943573 5:0.35829469561576843 6:1.0527148246765137 7:0.037652984261512756 8:0.6481457948684692 
-0.0 -6.0 1:0.23376375436782837 2:0.7224149107933044 3:0.19937537610530853 4:0.4042333662509918 5:0.3584153652191162 6:0.7698220610618591 7:0.19287703931331635 8:0.6481457948684692 
-0.0 -6.0 1:0.26399487257003784 2:0.7217749357223511 3:0.19913633167743683 4:0.4178982079029083 5:0.35815131664276123 6:0.8228604793548584 7:0.25342878699302673 8:0.6481457948684692 
-0.0 -6.0 1:0.18259626626968384 2:0.7233384847640991 3:0.1987859457731247 4:0.3802778720855713 5:0.358276903629303 6:0.5541503429412842 7:0.2041488140821457 8:0.6481457948684692 
-0.0 -6.0 1:0.2387048602104187 2:0.7234629988670349 3:0.19862985610961914 4:0.40799692273139954 5:0.3582848310470581 6:0.3887555003166199 7:0.1809915453195572 8:0.6481457948684692 
-0.0 -6.0 1:0.22179602086544037 2:0.7234642505645752 3:0.19379110634326935 4:0.39866816997528076 5:0.35447463393211365 6:0.3965681493282318 7:0.027297979220747948 8:0.6481457948684692 
-0.0 -6.0 1:0.33899447321891785 2:0.7222336530685425 3:0.19595779478549957 4:0.45287907123565674 5:0.3557463586330414 6:0.8516938090324402 7:-0.05126775801181793 8:0.6481457948684692 
-0.0 -6.0 1:0.31314006447792053 2:0.721244752407074 3:0.1977839171886444 4:0.44036123156547546 5:0.3569379448890686 6:0.8263346552848816 7:-0.08560014516115189 8:0.6481457948684692 
-0.0 -6.0 1:0.29206523299217224 2:0.7195295691490173 3:0.19755907356739044 4:0.43110883235931396 5:0.35641977190971375 6:0.6534329652786255 7:-0.12883307039737701 8:0.6481457948684692 
-0.0 -6.0 1:0.3688613474369049 2:0.7198674082756042 3:0.19603966176509857 4:0.46883031725883484 5:0.3551263213157654 6:0.37481483817100525 7:-0.11734621971845627 8:0.6481457948684692 
-0.0 -6.0 1:0.36773255467414856 2:0.719528317451477 3:0.19637803733348846 4:0.4687425196170807 5:0.3553369343280792 6:0.32871952652931213 7:0.016746366396546364 8:0.6481457948684692 
-6.0 -6.0 1:0.3752317726612091 2:0.715973436832428 3:0.19902390241622925 4:0.47421228885650635 5:0.35652458667755127 6:0.05396246537566185 7:0.13652464747428894 8:0.6481457948684692 
-6.0 -6.0 1:0.3523032069206238 2:0.7165085673332214 3:0.19645771384239197 4:0.46000921726226807 5:0.3539693057537079 6:-0.023674558848142624 7:0.2709105312824249 8:0.6481457948684692 
-6.0 -6.0 1:0.34163182973861694 2:0.7153963446617126 3:0.19789744913578033 4:0.4549975097179413 5:0.3546605408191681 6:-0.13344362378120422 7:0.3536723554134369 8:0.6481457948684692 
-6.0 -6.0 1:0.38047289848327637 2:0.7191793918609619 3:0.19814522564411163 4:0.47492796182632446 5:0.3561883866786957 6:-0.18296927213668823 7:0.17221699655056 8:0.6481457948684692 
-6.0 -6.0 1:0.38176673650741577 2:0.7211276292800903 3:0.1996002346277237 4:0.4743916690349579 5:0.35819482803344727 6:0.15433137118816376 7:-0.001984537346288562 8:0.6481457948684692 
-0.0 -6.0 1:0.39223140478134155 2:0.7179450988769531 3:0.19925202429294586 4:0.48170503973960876 5:0.3571050763130188 6:0.18886597454547882 7:-0.023606978356838226 8:0.6481457948684692 
-0.0 -6.0 1:0.42987143993377686 2:0.7198378443717957 3:0.1960604041814804 4:0.4993586540222168 5:0.35501357913017273 6:0.1986982375383377 7:-0.09392933547496796 8:0.6481457948684692 
-0.0 -6.0 1:0.46163320541381836 2:0.7219290733337402 3:0.19892020523548126 4:0.5149949789047241 5:0.35788530111312866 6:0.241667702794075 7:-0.175860196352005 8:0.6481457948684692 
-0.0 -6.0 1:0.4567653238773346 2:0.7232385873794556 3:0.19964061677455902 4:0.51351398229599 5:0.3588702380657196 6:0.22635489702224731 7:-0.08101192116737366 8:0.6481457948684692 
-6.0 -6.0 1:0.4007013738155365 2:0.7237429022789001 3:0.19999535381793976 4:0.48625871539115906 5:0.3593508303165436 6:0.19156236946582794 7:-0.09045340865850449 8:0.6481457948684692 
-0.0 -6.0 1:0.4149452745914459 2:0.7237737774848938 3:0.19976940751075745 4:0.4932152032852173 5:0.3592183291912079 6:0.22562362253665924 7:-0.06306853145360947 8:0.6481457948684692 
-0.0 -6.0 1:0.33814510703086853 2:0.7237157821655273 3:0.1996930092573166 4:0.45746520161628723 5:0.3590996563434601 6:0.2873615026473999 7:-0.07553733140230179 8:0.6481457948684692 
-6.0 -6.0 1:0.33927592635154724 2:0.7198624610900879 3:0.2000783234834671 4:0.45821714401245117 5:0.35836589336395264 6:0.1331670731306076 7:0.01278598140925169 8:0.6481457948684692 
-6.0 -6.0 1:0.39050760865211487 2:0.7225579619407654 3:0.19678190350532532 4:0.48127371072769165 5:0.3564039468765259 6:-0.02814328856766224 7:-0.03531650826334953 8:0.6481457948684692 
-6.0 -6.0 1:0.3948447108268738 2:0.7202311754226685 3:0.19820088148117065 4:0.4835963547229767 5:0.35634857416152954 6:-0.01953955553472042 7:0.16051071882247925 8:0.6481457948684692 
-6.0 -6.0 1:0.38625332713127136 2:0.7224198579788208 3:0.19947251677513123 4:0.4802316725254059 5:0.35833820700645447 6:-0.3522544801235199 7:0.28810766339302063 8:0.6481457948684692 
-0.0 -6.0 1:0.401269793510437 2:0.7230499386787415 3:0.19940374791622162 4:0.4874210059642792 5:0.35871005058288574 6:0.31218746304512024 7:0.33125588297843933 8:0.6481457948684692 
-6.0 -6.0 1:0.3553820550441742 2:0.7217404246330261 3:0.19885799288749695 4:0.4652652442455292 5:0.3576291799545288 6:-0.09277299791574478 7:0.10183706879615784 8:0.6481457948684692 
-6.0 -6.0 1:0.3945958614349365 2:0.7202447652816772 3:0.19977159798145294 4:0.4839150905609131 5:0.3579278290271759 6:-0.32580772042274475 7:-0.16809801757335663 8:0.6481457948684692 
-0.49635908896276076 -0.30485523859085695 1:218.04364013671875 2:311.9420471191406 3:207.2623291015625 4:1086.490234375 5:490.3896484375 6:276.59881591796875 7:281.3040466308594 8:1.0 
