svm_type c_svc
kernel_type rbf
gamma 0.0025706940796226263
nr_class 2
total_sv 158
rho 0.09805615393092226
label 1 2
probA -5.225753562324195
probB 0.08217401370548413
nr_sv 79 79
SV
1.0 1:1.136683702468872 2:0.04299910366535187 3:-0.04984356090426445 4:0.713143527507782 5:-0.13309799134731293 6:0.5197049975395203 7:0.31935495138168335 8:-0.7346245646476746 
1.0 1:1.852999210357666 2:0.3266552984714508 3:-0.3285953998565674 4:0.21816976368427277 5:-0.47057244181632996 6:0.48299670219421387 7:0.42837709188461304 8:-0.7346245646476746 
1.0 1:1.660141110420227 2:0.3705252707004547 3:-0.544901430606842 4:-0.019247213378548622 5:-0.5665475130081177 6:0.15966340899467468 7:-0.3816983699798584 8:-0.7346245646476746 
1.0 1:1.8464572429656982 2:0.2702634930610657 3:-0.39047351479530334 4:0.04610833153128624 5:-0.5336542129516602 6:-0.11830233782529831 7:-0.5823320150375366 8:-0.7346245646476746 
1.0 1:0.664169430732727 2:0.5718637108802795 3:-0.01843360997736454 4:0.19609799981117249 5:0.0068308101035654545 6:-1.5679361820220947 7:0.5373654365539551 8:-0.7346245646476746 
1.0 1:1.4362605810165405 2:0.22412407398223877 3:0.039198994636535645 4:0.2956191599369049 5:-0.036819733679294586 6:0.9130730628967285 7:-0.3666066825389862 8:-0.7346245646476746 
1.0 1:1.4658808708190918 2:0.3502402603626251 3:-0.1778467744588852 4:0.2247028946876526 5:-0.14521512389183044 6:0.948894202709198 7:-0.014760404825210571 8:-0.7346245646476746 
1.0 1:1.4118313789367676 2:0.36773329973220825 3:-0.8081870675086975 4:0.165526881814003 5:-0.6794742345809937 6:0.7012249231338501 7:0.026237621903419495 8:-0.7346245646476746 
1.0 1:1.4314074516296387 2:0.3264292776584625 3:-0.33361533284187317 4:0.16944219172000885 5:-0.20131303369998932 6:0.26947224140167236 7:-0.6806096434593201 8:-0.7346245646476746 
1.0 1:1.5438003540039062 2:0.6287634968757629 3:-0.5251927971839905 4:0.024160604923963547 5:-0.3553049564361572 6:-0.2327001839876175 7:-0.499891459941864 8:-0.7346245646476746 
1.0 1:1.5080174207687378 2:0.5136265158653259 3:-0.4017636775970459 4:0.36217525601387024 5:-0.23438414931297302 6:0.14892637729644775 7:-1.571795105934143 8:-0.7346245646476746 
1.0 1:1.595088243484497 2:0.42076295614242554 3:-0.3847046196460724 4:0.15335746109485626 5:-0.1977655440568924 6:0.054699819535017014 7:-1.545756459236145 8:-0.7346245646476746 
1.0 1:1.5598742961883545 2:0.5852190852165222 3:-0.4358517527580261 4:-0.047006599605083466 5:-0.16599199175834656 6:0.3445128798484802 7:-0.42131635546684265 8:-0.7346245646476746 
1.0 1:0.9148545861244202 2:-0.06250550597906113 3:0.0707555040717125 4:0.4296295940876007 5:-0.02702830545604229 6:0.5335957407951355 7:-0.8631469011306763 8:-0.7346245646476746 
1.0 1:1.1967754364013672 2:0.12529093027114868 3:-0.34526264667510986 4:0.500359058380127 5:-0.30124908685684204 6:0.733763575553894 7:-0.9921377897262573 8:-0.7346245646476746 
1.0 1:1.2938390970230103 2:0.7599349021911621 3:-0.5347968339920044 4:0.11325756460428238 5:-0.2852475047111511 6:0.06323029100894928 7:-1.3031799793243408 8:-0.7346245646476746 
1.0 1:0.6251819729804993 2:0.673949122428894 3:0.14579197764396667 4:0.3287838399410248 5:0.286222368478775 6:0.3604087233543396 7:0.271926611661911 8:-0.7346245646476746 
1.0 1:1.2675397396087646 2:0.6683942079544067 3:-0.0762590542435646 4:0.1493537425994873 5:0.027408795431256294 6:-0.3044533133506775 7:-0.46062925457954407 8:-0.7346245646476746 
1.0 1:1.0309005975723267 2:0.8844969868659973 3:-0.49593645334243774 4:-0.17403049767017365 5:-0.3263959586620331 6:-0.6577962040901184 7:0.694514811038971 8:-0.7346245646476746 
1.0 1:0.819367527961731 2:0.5083504915237427 3:-0.39621153473854065 4:-0.13968807458877563 5:-0.28983214497566223 6:0.13858962059020996 7:1.2429704666137695 8:-0.7346245646476746 
1.0 1:0.3775123953819275 2:0.64201420545578 3:-0.1402236372232437 4:-0.006287888623774052 5:-0.18712307512760162 6:-1.3014658689498901 7:0.7539772987365723 8:-0.7346245646476746 
1.0 1:0.8711025714874268 2:0.5768991708755493 3:-0.6939793825149536 4:-0.06542255729436874 5:-0.5379814505577087 6:-1.300557017326355 7:-0.29225870966911316 8:-0.7346245646476746 
1.0 1:0.5914533138275146 2:0.5711244940757751 3:-0.6114847660064697 4:-0.20802074670791626 5:-0.6494027972221375 6:-0.13937994837760925 7:-0.5644633769989014 8:-0.7346245646476746 
1.0 1:0.9520992636680603 2:0.6902416348457336 3:-0.6360729336738586 4:-0.30954375863075256 5:-0.5565481781959534 6:0.18603624403476715 7:0.44668859243392944 8:-0.7346245646476746 
1.0 1:1.2642590999603271 2:0.7542960047721863 3:-0.3762738108634949 4:-0.25290998816490173 5:-0.2836332321166992 6:-0.05183805525302887 7:-1.0189660787582397 8:-0.7346245646476746 
1.0 1:0.8147925734519958 2:0.5020055770874023 3:-0.08039886504411697 4:-0.08590880781412125 5:-0.046829547733068466 6:-0.2726016938686371 7:0.5381133556365967 8:-0.7346245646476746 
1.0 1:0.5513044595718384 2:0.40813949704170227 3:-0.2671099305152893 4:-0.07249750196933746 5:-0.2305769920349121 6:0.05938699096441269 7:1.6154556274414062 8:-0.7346245646476746 
1.0 1:0.6596983075141907 2:0.628332257270813 3:-0.050068795680999756 4:0.031177090480923653 5:0.06986308097839355 6:0.003868797095492482 7:1.9926623106002808 8:-0.7346245646476746 
1.0 1:1.2042890787124634 2:0.23180222511291504 3:0.053079355508089066 4:0.2218811959028244 5:0.07827439159154892 6:-0.02546522580087185 7:1.0550435781478882 8:-0.7346245646476746 
1.0 1:1.1451387405395508 2:0.4503786861896515 3:-0.422105610370636 4:0.3312205970287323 5:-0.4078831374645233 6:-1.1814044713974 7:0.36074933409690857 8:-0.7346245646476746 
1.0 1:1.2725355625152588 2:0.5647796392440796 3:-0.8344413638114929 4:0.1480690836906433 5:-0.6634628772735596 6:-0.8350062370300293 7:0.3306158185005188 8:-0.7346245646476746 
1.0 1:0.9914674162864685 2:0.6747878789901733 3:-0.9145779609680176 4:0.17428287863731384 5:-0.724493682384491 6:-1.1816600561141968 7:0.6321274638175964 8:-0.7346245646476746 
1.0 1:0.7190660834312439 2:0.5565333366394043 3:-0.5386365652084351 4:0.12266658246517181 5:-0.43328139185905457 6:-0.8243208527565002 7:0.6961821913719177 8:-0.7346245646476746 
1.0 1:0.7815622687339783 2:0.5675954222679138 3:-0.21503949165344238 4:0.1915096938610077 5:-0.15912365913391113 6:-0.9087721705436707 7:0.7514733076095581 8:-0.7346245646476746 
1.0 1:0.8039912581443787 2:0.7711203694343567 3:-0.22453321516513824 4:0.27521416544914246 5:-0.12988746166229248 6:-1.058099389076233 7:0.5302540063858032 8:-0.7346245646476746 
1.0 1:0.8764457702636719 2:0.8008013963699341 3:-0.2898322343826294 4:0.1904260665178299 5:-0.202677384018898 6:-0.9438571333885193 7:0.4224056601524353 8:-0.7346245646476746 
1.0 1:0.9769424200057983 2:0.24382850527763367 3:-0.1122777909040451 4:0.16430352628231049 5:-0.2789210081100464 6:-1.0585392713546753 7:0.45897457003593445 8:-0.7346245646476746 
1.0 1:1.0188257694244385 2:0.6436947584152222 3:-0.1951148808002472 4:0.25043192505836487 5:-0.17272299528121948 6:-0.9974001049995422 7:0.5249332785606384 8:-0.7346245646476746 
1.0 1:1.1583887338638306 2:0.5335133671760559 3:-0.36218133568763733 4:-0.027338769286870956 5:-0.3572576940059662 6:-1.3734797239303589 7:0.7120277285575867 8:-0.7346245646476746 
0.8223521278275356 1:1.388758659362793 2:0.2500593662261963 3:0.051606856286525726 4:0.16586337983608246 5:-0.09252963960170746 6:-1.234520435333252 7:0.4473477602005005 8:-0.7346245646476746 
1.0 1:1.191933274269104 2:0.16656385362148285 3:-0.23652224242687225 4:-0.15021637082099915 5:-0.4000789523124695 6:-1.2794634103775024 7:0.8787976503372192 8:-0.7346245646476746 
1.0 1:0.9683669805526733 2:0.01931564323604107 3:-0.30420854687690735 4:0.0040194010362029076 5:-0.4534098505973816 6:-0.7714330554008484 7:0.4817751944065094 8:-0.7346245646476746 
1.0 1:1.0175204277038574 2:0.10003887861967087 3:-0.3886176347732544 4:0.06098111346364021 5:-0.35886070132255554 6:-1.117891788482666 7:-0.016283264383673668 8:-0.7346245646476746 
1.0 1:0.9823645353317261 2:0.27202698588371277 3:-0.36595165729522705 4:0.15553897619247437 5:-0.3717680871486664 6:-1.0996192693710327 7:0.03772159665822983 8:-0.7346245646476746 
1.0 1:1.0481911897659302 2:0.3214207589626312 3:-0.3420291543006897 4:0.14234867691993713 5:-0.4059971868991852 6:-0.9814845323562622 7:-0.02211947925388813 8:-0.7346245646476746 
1.0 1:1.0988465547561646 2:0.21982675790786743 3:-0.018388871103525162 4:0.5374462008476257 5:-0.0836455300450325 6:-0.8161377310752869 7:0.5149654150009155 8:-0.7346245646476746 
1.0 1:0.5638194680213928 2:0.3481999337673187 3:0.2951784133911133 4:0.028392454609274864 5:0.10304076969623566 6:-1.038114309310913 7:0.7355466485023499 8:-0.7346245646476746 
1.0 1:1.2640666961669922 2:0.6313512325286865 3:-0.31206703186035156 4:0.08358757197856903 5:-0.28270187973976135 6:-1.1060891151428223 7:0.2939835488796234 8:-0.7346245646476746 
1.0 1:1.264249324798584 2:0.3215410113334656 3:0.2078266441822052 4:0.04594721272587776 5:0.05950954928994179 6:-0.7070465683937073 7:0.16657133400440216 8:-0.7346245646476746 
1.0 1:2.0669920444488525 2:0.2604942321777344 3:-0.9685991406440735 4:0.5219817161560059 5:-0.9067386388778687 6:-1.0743151903152466 7:-0.11301859468221664 8:-0.7346245646476746 
1.0 1:1.5460760593414307 2:0.027840817347168922 3:-0.2954831123352051 4:0.4614226520061493 5:-0.29304492473602295 6:-1.1524949073791504 7:0.5489829182624817 8:-0.7346245646476746 
1.0 1:1.2794443368911743 2:0.3892582654953003 3:-0.28562915325164795 4:0.17799857258796692 5:-0.359200656414032 6:-0.975723385810852 7:0.7715839743614197 8:-0.7346245646476746 
1.0 1:1.2416791915893555 2:0.2535490393638611 3:-0.35123592615127563 4:0.32594218850135803 5:-0.5139002799987793 6:-1.0158039331436157 7:0.5993471145629883 8:-0.7346245646476746 
1.0 1:1.1869624853134155 2:0.1051977351307869 3:-0.3219749629497528 4:0.2756005823612213 5:-0.3691444396972656 6:-1.4460365772247314 7:0.8976956009864807 8:-0.7346245646476746 
1.0 1:0.8492562770843506 2:-0.04103861376643181 3:-0.7191823124885559 4:0.2960240840911865 5:-0.8789951205253601 6:-1.1677814722061157 7:0.2183409184217453 8:-0.7346245646476746 
1.0 1:-0.6164369583129883 2:1.4092592000961304 3:1.852379560470581 4:1.4762778282165527 5:1.8944474458694458 6:-0.36070191860198975 7:0.6921147704124451 8:1.361232876777649 
1.0 1:-0.6369045376777649 2:1.4106712341308594 3:1.8573439121246338 4:1.4744799137115479 5:1.8990823030471802 6:0.3063003718852997 7:0.8469240665435791 8:1.361232876777649 
1.0 1:-0.6429156064987183 2:1.4105966091156006 3:1.8609931468963623 4:1.474635362625122 5:1.9020076990127563 6:0.4416165053844452 7:0.8200982809066772 8:1.361232876777649 
1.0 1:-0.7202765941619873 2:1.4105561971664429 3:1.8587230443954468 4:1.4542816877365112 5:1.9000489711761475 6:-0.12814578413963318 7:0.6965979933738708 8:1.361232876777649 
1.0 1:-0.5701185464859009 2:1.410623550415039 3:1.8607864379882812 4:1.4929572343826294 5:1.9018305540084839 6:1.0972673892974854 7:0.9925767779350281 8:1.361232876777649 
1.0 1:-0.5473884344100952 2:1.4100492000579834 3:1.8605350255966187 4:1.501438021659851 5:1.9015408754348755 6:0.2538032829761505 7:0.9210024476051331 8:1.361232876777649 
1.0 1:-0.4990116059780121 2:1.4115980863571167 3:1.8544414043426514 4:1.505858063697815 5:1.8969089984893799 6:1.266075611114502 7:0.9247013926506042 8:1.361232876777649 
1.0 1:-0.35139501094818115 2:1.4103094339370728 3:1.8596733808517456 4:1.547554850578308 5:1.9010275602340698 6:3.0277347564697266 7:0.8998615741729736 8:1.361232876777649 
1.0 1:-0.4885065257549286 2:1.4109553098678589 3:1.8568918704986572 4:1.5132337808609009 5:1.898719072341919 6:2.7806031703948975 7:1.1255438327789307 8:1.361232876777649 
1.0 1:-0.5373131632804871 2:1.4023160934448242 3:1.8603814840316772 4:1.49159836769104 5:1.8998087644577026 6:2.4411561489105225 7:1.072932481765747 8:1.361232876777649 
1.0 1:-0.425804078578949 2:1.4084950685501099 3:1.8601516485214233 4:1.5202003717422485 5:1.9007363319396973 6:1.9411214590072632 7:0.9599705338478088 8:1.361232876777649 
1.0 1:-0.4961496591567993 2:1.410224437713623 3:1.8618508577346802 4:1.5086768865585327 5:1.9027236700057983 6:2.4491589069366455 7:1.040449619293213 8:1.361232876777649 
1.0 1:-0.46485450863838196 2:1.4066579341888428 3:1.860787272453308 4:1.5222821235656738 5:1.9001765251159668 6:1.754576563835144 7:1.2299180030822754 8:1.361232876777649 
0.6748876919431033 1:-0.5171632766723633 2:1.4052345752716064 3:1.8600883483886719 4:1.5069830417633057 5:1.9001539945602417 6:0.8248683214187622 7:1.1172263622283936 8:1.361232876777649 
1.0 1:-0.47971099615097046 2:1.4111087322235107 3:1.8626091480255127 4:1.5179932117462158 5:1.9113661050796509 6:0.9160317182540894 7:0.9160662293434143 8:1.361232876777649 
1.0 1:-0.48926299810409546 2:1.403747797012329 3:1.853354573249817 4:1.508873701095581 5:1.891079306602478 6:1.2118436098098755 7:1.0978889465332031 8:1.361232876777649 
1.0 1:-0.45520973205566406 2:1.4101403951644897 3:1.8600267171859741 4:1.5222892761230469 5:1.9004766941070557 6:1.5330123901367188 7:1.1115769147872925 8:1.361232876777649 
1.0 1:-0.42564696073532104 2:1.4119309186935425 3:1.8493026494979858 4:1.5262103080749512 5:1.8925652503967285 6:2.4204533100128174 7:1.1588870286941528 8:1.361232876777649 
1.0 1:-0.4399338364601135 2:1.4119609594345093 3:1.8577195405960083 4:1.525955080986023 5:1.899757742881775 6:2.731649875640869 7:1.145600438117981 8:1.361232876777649 
1.0 1:-0.42421427369117737 2:1.4114270210266113 3:1.8576648235321045 4:1.5317624807357788 5:1.8996737003326416 6:3.403217077255249 7:1.1281635761260986 8:1.361232876777649 
1.0 1:-0.42559367418289185 2:1.4107593297958374 3:1.8624902963638306 4:1.5343389511108398 5:1.9032639265060425 6:3.3799431324005127 7:1.4833775758743286 8:1.361232876777649 
1.0 1:-0.42809778451919556 2:1.409788966178894 3:1.8608466386795044 4:1.530637502670288 5:1.9018560647964478 6:3.2080626487731934 7:1.6112545728683472 8:1.361232876777649 
0.2972817407664446 1:-0.39875996112823486 2:1.4083696603775024 3:1.8614860773086548 4:1.539744257926941 5:1.9016039371490479 6:3.0959835052490234 7:1.8046517372131348 8:1.361232876777649 
1.0 1:-0.20777961611747742 2:1.4092146158218384 3:1.8629662990570068 4:1.5881423950195312 5:1.9032129049301147 6:3.8572161197662354 7:1.3688234090805054 8:1.361232876777649 
-1.0 1:0.6748101711273193 2:-0.9273540377616882 3:-1.0537718534469604 4:-1.3184212446212769 5:-1.049795389175415 6:-0.20548857748508453 7:-0.5142056345939636 8:-0.7346245646476746 
-1.0 1:0.4204193353652954 2:-1.0622401237487793 3:-1.1146548986434937 4:-1.4211455583572388 5:-1.1214131116867065 6:-0.9291206002235413 7:-0.571479320526123 8:-0.7346245646476746 
-1.0 1:-0.44201087951660156 2:-0.6521732807159424 3:-0.7482388615608215 4:-1.5880112648010254 5:-0.7481050491333008 6:-0.8673275709152222 7:-0.09636180102825165 8:-0.7346245646476746 
-1.0 1:-0.03657538443803787 2:-0.9231821894645691 3:-0.37281355261802673 4:-0.7985703945159912 5:-0.5630247592926025 6:-0.7067884206771851 7:-0.49982723593711853 8:-0.7346245646476746 
-1.0 1:-0.19263936579227448 2:-0.9527243375778198 3:-0.42389512062072754 4:-0.6948615908622742 5:-0.6660017371177673 6:-0.6716371774673462 7:-1.0785342454910278 8:-0.7346245646476746 
-1.0 1:-0.12456118315458298 2:-0.12151717394590378 3:-0.8337170481681824 4:-1.5515813827514648 5:-0.7008410096168518 6:-0.6411533951759338 7:-1.003096103668213 8:-0.7346245646476746 
-0.37176490074843027 1:0.026452355086803436 2:-0.67925626039505 3:-0.9049615859985352 4:-1.618464708328247 5:-0.6116044521331787 6:0.3924362361431122 7:-1.7320460081100464 8:-0.7346245646476746 
-1.0 1:0.4417790174484253 2:-1.5159207582473755 3:-0.5488800406455994 4:-0.799174964427948 5:-0.6687057018280029 6:-0.5842559337615967 7:-1.3579800128936768 8:-0.7346245646476746 
-1.0 1:0.016482282429933548 2:-1.2377334833145142 3:-0.30593329668045044 4:-0.8648797869682312 5:-0.4644905924797058 6:-0.697627604007721 7:-0.37652215361595154 8:-0.7346245646476746 
-1.0 1:0.017349516972899437 2:-0.7581454515457153 3:-0.5300237536430359 4:-0.6815558075904846 5:-0.5826091170310974 6:0.4827136993408203 7:-1.3106987476348877 8:-0.7346245646476746 
-1.0 1:-0.4182176887989044 2:-0.6763938069343567 3:-0.5311213731765747 4:-0.8088106513023376 5:-0.4908622205257416 6:0.31316477060317993 7:-0.5945883989334106 8:-0.7346245646476746 
-1.0 1:0.7327507734298706 2:-0.5811581611633301 3:-1.6525664329528809 4:-1.3781112432479858 5:-1.333274006843567 6:-0.14780844748020172 7:-0.6775115132331848 8:-0.7346245646476746 
-1.0 1:0.16668325662612915 2:-0.7830418944358826 3:-1.3281108140945435 4:-1.235377550125122 5:-1.1599154472351074 6:-0.11740364879369736 7:-0.652333676815033 8:-0.7346245646476746 
-1.0 1:-0.2193339616060257 2:-0.9999046325683594 3:-0.534628689289093 4:-0.8136841654777527 5:-0.47528016567230225 6:0.14125634729862213 7:-1.0136322975158691 8:-0.7346245646476746 
-1.0 1:-0.26218554377555847 2:-0.658099353313446 3:-0.67768394947052 4:-0.8907842040061951 5:-0.7265064120292664 6:0.5668635368347168 7:-1.8491923809051514 8:-0.7346245646476746 
-1.0 1:-0.7891978025436401 2:-0.5207282304763794 3:-0.9087550640106201 4:-1.1630682945251465 5:-0.904187798500061 6:-0.8345358371734619 7:0.1199466735124588 8:-0.7346245646476746 
-1.0 1:-0.17036329209804535 2:-0.15094421803951263 3:-1.2983052730560303 4:-0.9756593108177185 5:-0.9435613751411438 6:0.41375860571861267 7:-2.310305595397949 8:-0.7346245646476746 
-1.0 1:-0.27874672412872314 2:-0.1988295167684555 3:-0.9947338104248047 4:-0.6973382234573364 5:-0.6295992732048035 6:0.3380104899406433 7:-2.896460771560669 8:-0.7346245646476746 
-1.0 1:-0.17327368259429932 2:-0.4436667561531067 3:-1.1573264598846436 4:-0.8282004594802856 5:-0.9079769253730774 6:0.21626894176006317 7:-2.8459765911102295 8:-0.7346245646476746 
-1.0 1:-0.3011466860771179 2:-0.42139536142349243 3:0.07950564473867416 4:0.26834598183631897 5:-0.0502697192132473 6:0.8463819026947021 7:0.4976012408733368 8:1.361232876777649 
-1.0 1:-0.30964183807373047 2:-0.42121392488479614 3:0.07986046373844147 4:0.26824048161506653 5:-0.06047991290688515 6:0.5342764258384705 7:0.43207693099975586 8:1.361232876777649 
-1.0 1:-0.31569793820381165 2:-0.4212305247783661 3:0.07999930530786514 4:0.259249210357666 5:-0.06303827464580536 6:0.47812339663505554 7:0.4708523452281952 8:1.361232876777649 
-1.0 1:-0.4065539836883545 2:-0.4225523769855499 3:0.07953881472349167 4:0.23312810063362122 5:-0.0651831328868866 6:0.8570526242256165 7:0.5177660584449768 8:1.361232876777649 
-1.0 1:-0.47809693217277527 2:-0.422246515750885 3:0.07956349849700928 4:0.21491460502147675 5:-0.06470882892608643 6:0.27634555101394653 7:0.5373037457466125 8:1.361232876777649 
-1.0 1:-0.41747573018074036 2:-0.42149385809898376 3:0.0799136832356453 4:0.22886346280574799 5:-0.06419701129198074 6:0.2710210382938385 7:0.5457192063331604 8:1.361232876777649 
-1.0 1:-0.5203761458396912 2:-0.42164313793182373 3:0.07958200573921204 4:0.21008819341659546 5:-0.06436136364936829 6:0.6537196636199951 7:0.5479485392570496 8:1.361232876777649 
-1.0 1:-0.38708657026290894 2:-0.42189714312553406 3:0.07843810319900513 4:0.24629417061805725 5:-0.061441268771886826 6:0.912946879863739 7:0.541394829750061 8:1.361232876777649 
-1.0 1:-0.39384862780570984 2:-0.4217219352722168 3:0.07892559468746185 4:0.2415975034236908 5:-0.06422552466392517 6:0.307136595249176 7:0.5436588525772095 8:1.361232876777649 
-1.0 1:-0.3902454078197479 2:-0.42141610383987427 3:0.0787690132856369 4:0.21757805347442627 5:-0.06496849656105042 6:1.095510721206665 7:0.5290471911430359 8:1.361232876777649 
-1.0 1:-0.4432317912578583 2:-0.4215622842311859 3:0.07975324988365173 4:0.21399922668933868 5:-0.06430207192897797 6:0.5911471247673035 7:0.60910964012146 8:1.361232876777649 
-1.0 1:-0.3880292475223541 2:-0.4214420020580292 3:0.08006641268730164 4:0.2434368133544922 5:-0.06395160406827927 6:0.9054132699966431 7:0.6318435072898865 8:1.361232876777649 
-1.0 1:-0.2913171052932739 2:-0.4213341772556305 3:0.07910608500242233 4:0.2705830931663513 5:-0.06468632072210312 6:0.5125308632850647 7:0.6151588559150696 8:1.361232876777649 
-1.0 1:-0.3841955363750458 2:-0.421034574508667 3:0.07962906360626221 4:0.24593485891819 5:-0.06446417421102524 6:0.694843590259552 7:0.6341861486434937 8:1.361232876777649 
-1.0 1:-0.32715678215026855 2:-0.4221179783344269 3:0.07899655401706696 4:0.26065507531166077 5:-0.06518538296222687 6:0.34425410628318787 7:0.6386930346488953 8:1.361232876777649 
-1.0 1:-0.4031424820423126 2:-0.42140260338783264 3:0.07892327755689621 4:0.2239600419998169 5:-0.04338862746953964 6:0.42469322681427 7:0.6382383704185486 8:1.361232876777649 
-1.0 1:-0.35088908672332764 2:-0.42229628562927246 3:0.07875975221395493 4:0.2539365887641907 5:-0.06383752822875977 6:0.8627340793609619 7:0.6341556906700134 8:1.361232876777649 
-1.0 1:-0.5254349112510681 2:-0.4213860332965851 3:0.0782722607254982 4:0.20733492076396942 5:-0.06701278686523438 6:0.28923943638801575 7:0.6163360476493835 8:1.361232876777649 
-1.0 1:-0.4629712402820587 2:-0.4232635796070099 3:0.07785727828741074 4:0.2072807401418686 5:-0.06518688052892685 6:0.790900707244873 7:0.6319153904914856 8:1.361232876777649 
-1.0 1:-0.4726921319961548 2:-0.4238358736038208 3:0.0777415782213211 4:0.22128234803676605 5:-0.06674261391162872 6:0.35652589797973633 7:0.638529896736145 8:1.361232876777649 
-1.0 1:-0.536228597164154 2:-0.4220619797706604 3:0.07963137328624725 4:0.20604027807712555 5:-0.06458950787782669 6:0.29168179631233215 7:0.6407490968704224 8:1.361232876777649 
-1.0 1:-0.4819437861442566 2:-0.4212937653064728 3:0.08003710210323334 4:0.22148481011390686 5:-0.06396886706352234 6:0.3681335747241974 7:0.6396217942237854 8:1.361232876777649 
-1.0 1:-0.5085975527763367 2:-0.4215363562107086 3:0.08004404604434967 4:0.21712464094161987 5:-0.07757945358753204 6:0.47404682636260986 7:0.6318249106407166 8:1.361232876777649 
-1.0 1:-0.5697399377822876 2:-0.42117348313331604 3:0.08013274520635605 4:0.20429079234600067 5:-0.07990366965532303 6:0.7148249745368958 7:0.6331128478050232 8:1.361232876777649 
-1.0 1:-0.5060214400291443 2:-0.4205991327762604 3:0.07949021458625793 4:0.21810275316238403 5:-0.07310587912797928 6:1.1735329627990723 7:0.6193276643753052 8:1.361232876777649 
-1.0 1:-0.5002740621566772 2:-0.42178207635879517 3:0.07991137355566025 4:0.21891404688358307 5:-0.07150962203741074 6:0.6215799450874329 7:0.5389178991317749 8:1.361232876777649 
-1.0 1:-0.46099868416786194 2:-0.4223242700099945 3:0.07976636290550232 4:0.2311847060918808 5:-0.06471933424472809 6:0.6186850070953369 7:0.5448495745658875 8:1.361232876777649 
-1.0 1:-0.41062021255493164 2:-0.42139121890068054 3:0.07985043525695801 4:0.24165739119052887 5:-0.04883181303739548 6:0.6916606426239014 7:0.5474854111671448 8:1.361232876777649 
-1.0 1:-0.42918717861175537 2:-0.42105531692504883 3:0.08002012968063354 4:0.22873513400554657 5:-0.08771985024213791 6:0.29338228702545166 7:0.5459101796150208 8:1.361232876777649 
-1.0 1:-0.45753735303878784 2:-0.4210242033004761 3:0.08015434443950653 4:0.21665412187576294 5:-0.06430207192897797 6:0.1892765909433365 7:0.5486575961112976 8:1.361232876777649 
-1.0 1:-0.4379287362098694 2:-0.4208635091781616 3:0.0801975429058075 4:0.2339850217103958 5:-0.06376923620700836 6:0.621308445930481 7:0.5446822643280029 8:1.361232876777649 
-1.0 1:-0.5199816226959229 2:-0.42105633020401 3:0.08013737946748734 4:0.2109650820493698 5:-0.08083950728178024 6:0.2873553931713104 7:0.5427672863006592 8:1.361232876777649 
-1.0 1:-0.4386679232120514 2:-0.4208614230155945 3:0.08021450787782669 4:0.23593983054161072 5:-0.06851073354482651 6:0.2792213559150696 7:0.5447194576263428 8:1.361232876777649 
-1.0 1:-0.43386319279670715 2:-0.4207826554775238 3:0.08020911365747452 4:0.23958423733711243 5:-0.06845369189977646 6:0.5122848153114319 7:0.5401694774627686 8:1.361232876777649 
-1.0 1:-0.5139462947845459 2:-0.42215219140052795 3:0.07990751415491104 4:0.19707326591014862 5:-0.05921986699104309 6:0.28602075576782227 7:0.5434086918830872 8:1.361232876777649 
-1.0 1:-0.4715252220630646 2:-0.4223947823047638 3:0.07590115070343018 4:0.23126454651355743 5:-0.06889346987009048 6:0.5679980516433716 7:0.4906199276447296 8:1.361232876777649 
-1.0 1:-0.5028619170188904 2:-0.4212004542350769 3:0.07870421558618546 4:0.20358499884605408 5:-0.04571284353733063 6:0.6638664603233337 7:0.5387657880783081 8:1.361232876777649 
-1.0 1:-0.38362938165664673 2:-0.4214710295200348 3:0.0788862556219101 4:0.2623903155326843 5:-0.06331895291805267 6:0.9071213603019714 7:0.5382604002952576 8:1.361232876777649 
-1.0 1:-0.3404926657676697 2:-0.4209018647670746 3:0.07998927682638168 4:0.2642752528190613 5:-0.07041092962026596 6:0.582835853099823 7:0.5327588319778442 8:1.361232876777649 
-1.0 1:-0.5125073790550232 2:-0.4206509590148926 3:0.0780130922794342 4:0.21612656116485596 5:-0.06463003158569336 6:0.5552992224693298 7:0.5439529418945312 8:1.361232876777649 
-1.0 1:-0.5705462694168091 2:-0.4222392737865448 3:0.07980569452047348 4:0.20167012512683868 5:-0.05805213004350662 6:0.4763566255569458 7:0.5451496243476868 8:1.361232876777649 
-0.5205247593229895 1:-0.5626221299171448 2:-0.4214897155761719 3:0.07998696714639664 4:0.19475914537906647 5:-0.06504729390144348 6:0.6369149088859558 7:0.5444566011428833 8:1.361232876777649 
-1.0 1:-0.5513266324996948 2:-0.42108020186424255 3:0.08012966066598892 4:0.20940950512886047 5:-0.07246572524309158 6:0.5217713713645935 7:0.547598659992218 8:1.361232876777649 
-1.0 1:-0.5492744445800781 2:-0.42118799686431885 3:0.08020911365747452 4:0.2351442128419876 5:-0.06766194105148315 6:0.5121089220046997 7:0.5492094159126282 8:1.361232876777649 
-1.0 1:-0.5538445711135864 2:-0.4213559627532959 3:0.08009572327136993 4:0.20939096808433533 5:-0.07707813382148743 6:0.4661129415035248 7:0.5493361949920654 8:1.361232876777649 
-1.0 1:-0.560938835144043 2:-0.4212740659713745 3:0.08016360551118851 4:0.20598752796649933 5:-0.05931142717599869 6:0.4651632606983185 7:0.5497764945030212 8:1.361232876777649 
-1.0 1:-0.5911881923675537 2:-0.4210532307624817 3:0.08002939075231552 4:0.19595827162265778 5:-0.04741867259144783 6:0.4005141854286194 7:0.547955334186554 8:1.361232876777649 
-1.0 1:-0.5593739748001099 2:-0.42180073261260986 3:0.07987743616104126 4:0.20124807953834534 5:-0.06013094261288643 6:0.5533080697059631 7:0.545057475566864 8:1.361232876777649 
-1.0 1:-0.47252947092056274 2:-0.421507328748703 3:0.07999467849731445 4:0.2155761867761612 5:-0.07342632859945297 6:0.39941665530204773 7:0.5484691262245178 8:1.361232876777649 
-1.0 1:-0.469621866941452 2:-0.42112165689468384 3:0.08004558831453323 4:0.225286066532135 5:-0.06623529642820358 6:0.47273004055023193 7:0.5440788865089417 8:1.361232876777649 
-1.0 1:-0.5369172692298889 2:-0.4210521876811981 3:0.08021374046802521 4:0.20877929031848907 5:-0.06428481638431549 6:0.11332962661981583 7:0.5219053030014038 8:1.361232876777649 
-1.0 1:-0.5891658067703247 2:-0.4242101311683655 3:0.07940614223480225 4:0.19096502661705017 5:-0.06569495052099228 6:0.09652616828680038 7:0.41681623458862305 8:1.361232876777649 
-1.0 1:-0.5145602226257324 2:-0.42099517583847046 3:0.08019831031560898 4:0.20731210708618164 5:-0.0637812465429306 6:0.3801886737346649 7:0.5350938439369202 8:1.361232876777649 
-1.0 1:-0.531711757183075 2:-0.4212076961994171 3:0.08006563782691956 4:0.19289131462574005 5:-0.06387655436992645 6:0.19105611741542816 7:0.5459457039833069 8:1.361232876777649 
-1.0 1:-0.5412603616714478 2:-0.42272239923477173 3:0.07953881472349167 4:0.1930253505706787 5:-0.06517637521028519 6:0.2682510316371918 7:0.4853575527667999 8:1.361232876777649 
-1.0 1:-0.5686740875244141 2:-0.42115068435668945 3:0.08007103949785233 4:0.2076357752084732 5:-0.08902717381715775 6:0.1560674011707306 7:0.5407981872558594 8:1.361232876777649 
-1.0 1:-0.5542771220207214 2:-0.4216213822364807 3:0.07959435135126114 4:0.20795801281929016 5:-0.06065477430820465 6:0.44255852699279785 7:0.5456464886665344 8:1.361232876777649 
-1.0 1:-0.45099538564682007 2:-0.4234139025211334 3:0.07819821685552597 4:0.23619362711906433 5:-0.08358249068260193 6:0.2356843203306198 7:0.5436943769454956 8:1.361232876777649 
-1.0 1:-0.40819916129112244 2:-0.4244122803211212 3:0.07736747711896896 4:0.24534884095191956 5:-0.07106158882379532 6:0.40589991211891174 7:0.5470476746559143 8:1.361232876777649 
-0.9022319004656639 1:235.13563537597656 2:296.6575927734375 3:213.1396942138672 4:1121.923828125 5:497.01611328125 6:275.5965881347656 7:299.40069580078125 8:1.0 
